নান্দাইল 1.29422247e-01 -2.72375464e-01 4.98787105e-01 -7.23889112e-01 -1.88801244e-01 -8.11338127e-01 2.20533848e-01 -1.02659678e+00 3.51635031e-02 -1.50347710e-01 -1.12952419e-01 2.95376271e-01 -1.86069086e-01 -8.02166760e-02 4.71929252e-01 4.85841542e-01 4.34027195e-01 3.31800610e-01 9.71458182e-02 -2.40557566e-01 1.28284171e-01 3.17298621e-01 2.38036022e-01 8.38516653e-03 -3.29164714e-01 2.39148159e-02 -9.54577625e-02 1.81728721e-01 9.53860059e-02 1.91908002e-01 4.58551437e-01 7.57244676e-02 -1.49412960e-01 1.22696593e-01 2.90298581e-01 -4.31387424e-02 -1.32595092e-01 1.13348551e-01 5.20250499e-01 -7.73743987e-01 -1.73945904e-01 1.02478191e-01 2.39567384e-01 -5.95870651e-02 -3.80844355e-01 -2.41220564e-01 6.07195050e-02 1.16274782e-01 6.78034663e-01 1.41400710e-01 6.72103047e-01 -3.18723798e-01 5.69053963e-02 1.44941539e-01 -4.91861463e-01 -5.78427948e-02 1.17734231e-01 -3.01037610e-01 3.05928975e-01 -7.39583001e-02 4.27405499e-02 2.50311911e-01 -2.03533202e-01 -7.58357346e-01 -4.03195083e-01 7.01318309e-02 8.94373283e-03 -3.84115905e-01 4.97494191e-01 4.57691252e-01 1.73089400e-01 -3.02160084e-01 6.80179715e-01 -1.15605064e-01 3.47608835e-01 -3.79379869e-01 -6.25848949e-01 2.63605174e-02 4.86909412e-02 -8.79162788e-01 -2.77928889e-01 -4.38780822e-02 -3.27180505e-01 -2.66991645e-01 4.48852003e-01 5.53967237e-01 3.25131744e-01 -2.90317219e-02 1.45467788e-01 9.91784111e-02 1.32865831e-01 2.51231074e-01 -7.18987584e-02 -1.06781952e-01 -7.94569999e-02 1.10542737e-01 4.97511476e-01 -4.59635019e-01 4.23579127e-01 -3.13330352e-01 6.63043335e-02 4.14418101e-01 1.85924530e-01 5.57497889e-02 1.85141101e-01 3.71706009e-01 5.97317517e-02 1.25296161e-01 6.13741279e-01 2.42856085e-01 -5.54901302e-01 1.01331761e-02 3.43075126e-01 3.30921769e-01 1.98375806e-01 -4.47896242e-01 1.72726646e-01 -5.28339982e-01 -3.08455408e-01 2.60592788e-01 -5.03770523e-02 -1.11622542e-01 -3.25180590e-05 1.05732538e-01 2.08216548e-01 6.91574156e-01 -5.13774872e-01 -3.19531113e-01 -6.13206401e-02 1.24686837e-01 -4.43499476e-01 2.68152267e-01 2.67391980e-01 -2.94405222e-01 -3.91810313e-02 3.47348928e-01 2.27768183e-01 -5.66724129e-02 -1.63214430e-01 -4.93258923e-01 -8.77982527e-02 -1.30543977e-01 5.69542587e-01 -5.52783549e-01 1.95795238e-01 2.22487405e-01 3.44141340e-03 3.20500344e-01 1.63772613e-01 -3.26310217e-01 3.60895157e-01 -4.52555984e-01 3.81337911e-01 -3.86744350e-01 1.93224121e-02 -3.00213456e-01 -2.37222582e-01 9.24345925e-02 -2.16972068e-01 -2.11532682e-01 -1.12590387e-01 -3.56727131e-02 -2.80347496e-01 -2.41349608e-01 1.27157927e-01 -2.42707208e-01 1.43806100e-01 -3.11817259e-01 3.43852878e-01 4.77331504e-02 -5.24313450e-01 -2.31146783e-01 -5.95691502e-01 3.08291525e-01 -4.75687385e-01 3.41736287e-01 -2.26858314e-02 3.26946467e-01 3.72336626e-01 1.96153998e-01 8.89666200e-01 -8.67876038e-02 -3.77922475e-01 6.69746548e-02 -6.75725996e-01 2.26115897e-01 4.97412942e-02 2.70740151e-01 -8.14457655e-01 -1.30607948e-01 2.44173512e-01 2.61945069e-01 3.59413475e-02 -2.11809754e-01 -2.51435757e-01 1.60719424e-01 6.01266176e-02 -9.55494717e-02 1.21925488e-01 -5.05916953e-01
বোয়ালখালী -0.35435492 0.10571979 -0.03253963 -0.4183119 0.3445967 -0.663239 -0.1959155 -0.4897313 -0.03907534 -0.7241867 0.0265676 -0.00941526 -0.00480494 0.3100672 0.20441936 0.40954325 0.03585536 -0.08677182 0.41311678 0.57840586 0.1327501 -0.11069652 -0.45521876 -0.56111157 -0.53444296 0.2453842 -0.10347754 0.33006924 -0.2934414 -0.07385217 0.0633949 -0.17953657 0.24877968 0.17649639 0.14722848 0.24151412 0.13266103 0.12382447 0.2213762 -0.18214133 -0.05000424 -0.5621932 0.36057064 -0.27971554 -0.31537372 -0.00418611 -0.3371393 -0.11240982 0.516506 0.2359411 -0.12671615 -0.05652699 -0.11377739 0.1267654 -0.03283827 -0.7361711 0.11473533 0.06433867 0.64756495 0.07219226 -0.49471828 -0.4241721 0.02839351 -0.47648582 0.06151497 -0.287119 -0.29848808 0.02218751 0.5791313 0.49023637 0.1925694 -0.32235813 0.26875627 0.18803334 -0.00410488 -0.7892609 -0.41229048 0.36888522 0.29869092 -0.32319131 0.03670397 -0.33762062 -0.38162932 0.0677351 0.16208817 0.24397556 -0.11552321 0.0886411 -0.06485996 -0.16073313 0.04402982 -0.07279249 -0.05764877 -0.2721029 -0.17574574 0.14400811 -0.14816841 -0.79115653 0.0589169 0.12448409 -0.27834296 0.22586706 0.46665484 0.17828844 -0.01631607 0.4439542 -0.03449208 -0.11395615 0.4629302 -0.02468465 -0.21310392 0.1927315 0.09172771 -0.02780301 0.35864356 -0.4560622 -0.18175726 -0.4760676 0.4035788 0.19421168 -0.37138954 -0.01905359 -0.11437999 0.04231545 0.03742806 0.4896016 -0.39607972 -0.35116494 -0.11449418 0.07712626 -0.23776653 -0.02661826 -0.17960487 0.20851833 0.13625576 0.7770595 0.21995598 0.34343472 0.57656664 0.21104927 0.21033444 -0.1622425 0.19913769 -0.06746708 -0.12322257 0.2724159 -0.34488413 0.57086664 -0.02343851 -0.32524213 -0.12483688 -0.35423195 0.20948264 -0.42747897 0.05200892 -0.81618327 -0.11293701 -0.04651278 0.32667053 0.17522974 -0.24107221 -0.48836103 -0.3193658 -0.28673497 0.44983232 -0.30605498 -0.12559588 -0.23971893 0.8252644 0.08512442 0.05807757 -0.23850957 -0.4439339 -0.10419653 -0.14946142 -0.04862027 0.27266735 -0.01760196 -0.02747514 -0.3858132 0.32991457 0.15914662 0.0905513 -0.31149408 -0.14345424 0.51653236 0.30668616 -0.05775711 -0.65417194 0.12453858 0.22794686 0.83415806 -0.15910572 -0.5441669 0.21354856 0.4830751 -0.11955447 -0.17440562 -0.11204523 -0.45016447
ত্রিশাল 0.33818263 -0.20769314 0.28344816 -0.6632951 -0.21411344 -0.48258102 -0.01158313 -0.91118747 0.294376 -0.11740667 -0.02199678 -0.00182593 -0.23550043 -0.00417744 0.23651111 0.45384532 0.49115387 0.0560918 0.29709053 -0.4216583 0.25260922 0.25052685 0.21852815 -0.06618882 -0.4096475 0.27697533 -0.00812782 -0.01385878 0.01635899 0.03417316 0.21353471 0.21924993 -0.076614 0.03544323 0.2980587 0.10642142 -0.19901542 0.23498428 0.60592103 -0.826571 -0.2939838 0.28357086 0.21100804 -0.26269266 -0.3528037 -0.07726872 -0.54642534 0.16832146 0.39190292 0.20922615 0.38471523 -0.36004248 -0.13439119 0.02020906 -0.49388823 -0.382957 0.40885556 -0.19539508 0.20582297 0.07190637 0.13853657 0.14629158 -0.15200174 -0.6365345 -0.37037554 0.37429643 0.18680176 -0.52088016 0.3718378 0.5861821 0.09926291 -0.46692997 0.4578234 -0.2441231 0.4900301 0.18543786 -0.4521094 0.28012028 0.03578844 -0.7369947 0.14513606 0.06537387 -0.20855935 -0.27750885 0.30552936 -0.11451266 0.336373 -0.17383002 0.20053482 -0.24052946 0.12912822 0.08379363 0.00780399 -0.14693588 -0.630453 0.29695597 0.47778708 -0.81549764 0.2764548 -0.26282522 0.32652503 0.30076128 0.45130694 -0.02031081 0.10151795 0.5666959 0.02038745 -0.18798676 0.56552845 0.07352085 -0.3670669 0.05675882 -0.09184038 0.19735493 0.19874239 -0.5203556 0.18132648 -0.58189094 -0.07373328 0.31361076 0.01651239 -0.170017 -0.10502136 0.29858857 0.23434834 0.42911687 -0.4459668 -0.23417597 -0.24199066 0.01342055 -0.11803575 0.05016382 0.01138429 -0.2432012 0.00551563 0.2657735 0.18940084 0.06703376 -0.00819648 -0.60890913 0.14088485 0.16840899 0.49715102 -0.3957628 0.12998061 0.08677278 -0.3070192 0.6413205 0.38780707 -0.26366943 0.5244619 -0.49329114 0.35439393 -0.33349657 -0.03780717 -0.5220602 -0.55259 -0.04871332 -0.27505293 -0.10515252 -0.1368871 -0.06564083 -0.528159 -0.14149165 0.4753352 -0.5237128 0.20420405 -0.4637359 0.34062934 -0.00211615 -0.6590131 -0.11089668 -0.5260432 0.31953034 -0.2930652 0.08741599 0.06306969 0.41788036 0.2765768 0.26452816 0.62996703 0.1130094 -0.12109214 -0.00646873 -0.15039548 0.55390185 0.16667968 0.40303332 -0.6482441 -0.47148916 0.24735348 -0.12517701 -0.09513067 -0.11690692 -0.0090995 0.13856553 0.00258734 -0.02536346 0.05111559 -0.21235113
বানারীপাড়া 0.0701584 -0.0637083 0.2907701 -0.35993338 0.29205653 -0.39787537 0.08584269 -0.11456735 -0.05513238 -0.7236618 -0.11564264 0.23188293 0.11502729 0.08425145 0.4192023 0.20078906 0.00572393 -0.17535396 0.18642981 0.03993933 0.25930852 0.28083014 -0.08093151 0.02843861 -0.5339957 0.04803346 0.03409355 0.5713319 -0.09557806 -0.2927135 0.02070602 -0.16054654 -0.31001356 -0.01837637 -0.09365233 0.4115186 0.38519585 0.27652094 0.4197745 -0.03190615 -0.174552 -0.0929003 0.28746417 -0.03683228 -0.0847712 0.03812355 -0.28325218 0.09501377 0.585079 -0.17803599 -0.01866363 -0.18785845 0.04824019 -0.07595257 -0.30395478 -0.87095106 0.12183282 0.35587385 0.24586396 -0.04754578 0.02255928 0.05700417 -0.30192223 -0.30296203 -0.13257296 0.03855477 0.03916839 -0.44043222 0.10611582 0.24554239 0.1309974 0.2537794 0.19388251 -0.37626565 -0.08413202 -0.52953833 -0.48585466 -0.305986 0.31730568 -0.69092345 0.233912 0.04935696 -0.22483753 -0.16579184 0.31008056 -0.10500062 -0.280733 -0.16762452 0.06672245 -0.08062005 0.20973445 -0.1793958 0.16372986 0.06792681 -0.28744477 0.19880363 0.18007305 -0.4998065 0.41910276 -0.36409482 -0.17770831 0.00708146 0.5572144 0.18730439 0.25453815 0.2532911 -0.01244366 -0.14691037 0.1352502 -0.27904886 -0.35885638 0.26093292 0.08708543 0.00449047 0.07899339 -0.04277211 0.01301759 -0.36001968 0.08598792 -0.16734207 0.09046007 -0.22545339 -0.27083147 -0.71244276 -0.25756958 0.0595723 -0.30934972 -0.26254883 -0.33608386 0.07363816 -0.27603614 0.06647315 0.23809367 0.41917008 0.42628968 0.3554753 0.22895601 0.08856797 -0.3250635 -0.11084671 -0.17035097 -0.2761501 -0.03067214 0.05116924 -0.32622552 0.16120097 -0.2959114 0.25565597 0.27960655 0.11566666 -0.01669163 -0.32676774 0.4973713 -0.56309724 0.1089154 -0.36940098 -0.07584674 -0.41977862 -0.02137058 0.2529811 -0.45720822 -0.39647445 -0.20971192 -0.4997736 0.21003312 -0.40352166 -0.00485344 -0.24636036 0.4199525 0.11738275 -0.20239492 0.36025405 -0.16899493 0.33964154 -0.46995276 -0.08747292 0.11662859 0.20567685 -0.06723641 -0.03921069 0.14504662 -0.1716661 -0.09918763 -0.16842166 -0.32061416 0.5338337 -0.25201547 0.48582873 -0.34108916 -0.23800398 -0.2496031 0.3403733 -0.32991168 0.04263832 0.0753436 0.07756373 0.20727791 -0.41109413 0.04123059 -0.01787585
তানোর -2.27869034e-01 -1.63905665e-01 -3.69923204e-01 -1.54847950e-01 1.46230057e-01 -3.86028439e-01 1.50955573e-01 -3.69900674e-01 3.71062830e-02 -4.99283932e-02 -1.34546263e-02 3.66736084e-01 -3.39806676e-01 5.20025082e-02 3.81334871e-01 2.25022033e-01 4.37518150e-01 -2.52932459e-01 3.94741446e-01 8.76856968e-02 2.58324742e-01 1.80503815e-01 2.46077664e-02 -1.98237821e-02 -2.76995808e-01 2.28125080e-01 -1.66196346e-01 3.62460107e-01 1.17352270e-01 9.01335120e-01 -6.08833283e-02 -1.44687697e-01 -9.15088207e-02 2.52966404e-01 2.30809659e-01 3.33246708e-01 3.16740632e-01 2.77421087e-01 5.26145339e-01 -2.17861071e-01 -1.76178083e-01 -1.87906742e-01 4.30900574e-01 1.16050791e-03 6.05355538e-02 -4.45009172e-01 -4.43292528e-01 -3.08428049e-01 4.08157080e-01 2.62477815e-01 6.39493823e-01 -4.47472245e-01 3.70675325e-01 -3.85354757e-01 -1.74144492e-01 2.27800667e-01 1.68800861e-01 -3.29136802e-03 4.32502449e-01 -1.64454103e-01 -9.64596719e-02 -2.23426476e-01 -2.25787327e-01 -7.16580749e-01 -2.91013122e-01 -3.14615279e-01 1.09236009e-01 -5.33903658e-01 2.73384362e-01 1.22498602e-01 1.97949082e-01 -3.02570373e-01 3.84302795e-01 1.84030995e-01 1.01609416e-01 -5.38856864e-01 -1.02280140e+00 2.58594185e-01 1.75657481e-01 -9.20254052e-01 -3.84017080e-02 -1.14182092e-01 -1.35354564e-01 -5.25557138e-02 1.20901003e-01 -1.04098551e-01 -4.93962131e-02 1.94828421e-01 2.74840832e-01 2.22324312e-01 1.81192532e-01 -4.27531749e-02 1.78893059e-01 -2.56994754e-01 -1.82245642e-01 -1.22463210e-02 2.27579117e-01 -4.98041868e-01 8.69860649e-02 -4.45767939e-01 -1.78721678e-02 5.15098333e-01 4.12774608e-02 1.44785687e-01 4.16886926e-01 1.85416341e-01 4.58331918e-03 2.12491363e-01 3.90333652e-01 1.69300482e-01 -4.16707993e-01 3.00450116e-01 -1.34437531e-01 5.62352687e-02 2.69586802e-01 -2.27937937e-01 2.95782715e-01 -5.55036247e-01 -3.67339730e-01 -2.83611238e-01 -6.19532317e-02 -3.13708596e-02 -9.03804079e-02 9.64241009e-03 2.54590511e-01 4.57374424e-01 1.05729185e-01 -3.16278905e-01 -5.45911729e-01 -1.28363028e-01 -2.23634571e-01 7.97193646e-01 -2.14295462e-01 -1.64245039e-01 -2.69031525e-01 4.43227261e-01 4.59043026e-01 3.86405997e-02 1.64359491e-02 -1.89525858e-01 1.73311278e-01 5.15657738e-02 5.47493875e-01 -4.13500667e-02 -1.82508290e-01 1.64270312e-01 -1.58965632e-01 2.47483134e-01 4.82023597e-01 2.05117792e-01 -1.00820720e-01 -1.20051885e+00 1.45021573e-01 -1.11128420e-01 3.22408206e-03 -2.45498702e-01 -1.20903961e-01 -8.09489116e-02 3.04771632e-01 2.56938666e-01 -2.50251830e-01 1.21679865e-01 -9.00068358e-02 -2.54623592e-01 -2.42729411e-01 -2.53568441e-01 6.50616348e-01 -1.15324661e-01 7.10936487e-01 1.81577519e-01 -7.00249374e-01 -3.80179286e-01 -3.21458012e-01 5.40777259e-02 -3.45283300e-01 5.53253889e-01 1.94816038e-01 2.58671224e-01 -6.10345192e-02 3.91375460e-02 4.29894514e-02 -6.11509271e-02 5.12496270e-02 -6.61148578e-02 -6.64145350e-01 6.56376660e-01 3.69142443e-01 4.12190735e-01 -4.74727392e-01 -8.78107175e-02 1.18802398e-01 2.36424357e-01 -3.26990113e-02 -6.84740692e-02 -3.72479379e-01 1.77660659e-01 -3.21948141e-01 -4.39908206e-02 8.52242671e-03 6.96126297e-02
পাইকগাছা 1.32379919e-01 -8.01825598e-02 1.66833743e-01 -1.40637413e-01 4.31166589e-01 -4.93990965e-02 4.14565831e-01 -3.37592900e-01 -1.93999320e-01 -6.64782286e-01 -6.41056225e-02 4.54768911e-02 -2.58958906e-01 -2.13239253e-01 1.02730975e-01 -1.17720351e-01 2.81266689e-01 -1.94344953e-01 4.95509267e-01 -7.45685846e-02 2.29071051e-01 9.49962363e-02 -7.88215175e-02 -1.57556877e-01 -5.16347051e-01 1.80548087e-01 2.56774426e-01 4.41854089e-01 2.96699777e-02 2.79994786e-01 -5.69757223e-02 -1.06549472e-01 -2.77313232e-01 1.19503900e-01 1.33876232e-02 6.95488751e-01 3.12294215e-01 3.27497274e-01 1.26051754e-01 3.55161056e-02 3.06287184e-02 -3.67648341e-02 2.66377658e-01 3.44665498e-01 -3.60542119e-01 -3.70738566e-01 -5.62632740e-01 -4.26431090e-01 3.94125789e-01 -7.54553601e-02 1.96672902e-01 -2.84397691e-01 3.38653862e-01 1.10431917e-01 -1.86545253e-01 -2.40905240e-01 2.16690347e-01 3.75566870e-01 2.40544319e-01 -3.55452836e-01 3.64399195e-01 -3.49779546e-01 -5.14747679e-01 -4.50904667e-01 -4.08286780e-01 1.87367782e-01 2.59191364e-01 -5.50166726e-01 1.78303093e-01 6.75552845e-01 2.40216732e-01 -3.99568707e-01 3.33051920e-01 1.37192324e-01 3.76600295e-01 -8.71817529e-01 -2.91327864e-01 -1.30806938e-01 4.31596041e-01 -8.91029358e-01 -8.61363634e-02 -4.27205563e-02 -4.18641478e-01 -2.22268954e-01 3.04653734e-01 -9.80685577e-02 -2.10798860e-01 -3.96058351e-01 3.27371895e-01 1.50154889e-01 -8.49915072e-02 4.63049561e-02 3.40563565e-01 -1.02371678e-01 -5.85347354e-01 -3.35242778e-01 7.49316750e-05 -3.34566474e-01 2.65558332e-01 -2.83251256e-01 4.46125925e-01 2.07800251e-02 3.86902571e-01 2.03853995e-01 6.62263393e-01 5.64180732e-01 3.63303423e-02 -6.64062425e-02 4.29564297e-01 -1.88270897e-01 9.70849916e-02 2.91545957e-01 -1.39906779e-01 4.84428555e-02 1.22022897e-01 -2.05418155e-01 -3.44273865e-01 -1.03874318e-01 1.24789983e-01 5.19465685e-01 -2.01524734e-01 -9.18983892e-02 -6.16336584e-01 -3.63608301e-01 1.94530725e-01 3.93892318e-01 -4.32624787e-01 -3.54335725e-01 -1.44871891e-01 7.58761317e-02 -4.52898651e-01 2.03689128e-01 1.11848554e-02 3.79683703e-01 -7.14913011e-02 5.61164558e-01 1.39562124e-02 1.63306490e-01 -3.62252653e-01 -6.36278316e-02 6.29812330e-02 4.13578957e-01 6.74611926e-02 -1.49950221e-01 -2.80190766e-01 -2.01632828e-01 1.28088444e-01 2.69522399e-01 5.26299417e-01 1.39593586e-01 1.61355913e-01 -7.66859233e-01 6.48157775e-01 -2.73672223e-01 -6.01566657e-02 -1.87573016e-01 -5.44455826e-01 -1.63748354e-01 4.05556299e-02 -1.63458943e-01 -3.31469387e-01 1.61725283e-02 -4.72066015e-01 -5.94228148e-01 3.99587423e-01 -1.35621279e-01 5.76622903e-01 -5.54192483e-01 3.76439959e-01 3.09242576e-01 -1.64963633e-01 2.01309264e-01 -5.15902042e-02 3.90268713e-01 -5.61290741e-01 3.48514020e-01 -2.68503316e-02 3.08481187e-01 -1.37420669e-01 -2.85114683e-02 -9.17875618e-02 -3.00779909e-01 2.46924132e-01 -8.48367065e-02 -1.47402495e-01 6.50941312e-01 2.43339747e-01 -1.78393465e-03 -1.07976347e-01 -6.85794950e-01 1.03550538e-01 3.87563705e-01 -7.05326423e-02 -2.09528133e-01 -7.11439252e-02 -1.19293749e-01 -6.66401386e-02 -1.50852621e-01 -2.39340514e-01 -4.46915850e-02
কাউনিয়া 2.18461044e-02 1.14631191e-01 -3.45937759e-01 -1.86007455e-01 2.28118613e-01 -2.47463003e-01 -4.81819175e-02 -6.65236413e-01 2.54669577e-01 -5.17681658e-01 3.23594660e-01 1.77103505e-01 2.48832256e-01 2.55117983e-01 3.58858883e-01 -2.77284048e-02 -1.27485156e-01 -4.05969799e-01 1.74025625e-01 3.53478909e-01 3.63792598e-01 2.59091765e-01 -4.62762952e-01 1.05239414e-01 -7.58859634e-01 1.35917008e-01 4.83981334e-02 2.25878939e-01 -3.37055475e-02 1.31100178e-01 2.10165024e-01 -8.36932212e-02 5.59066832e-01 3.42602581e-01 3.85527462e-01 9.78486717e-01 1.04406700e-02 6.24148786e-01 6.60003647e-02 -9.50779617e-02 2.99504519e-01 -9.88963470e-02 5.39777577e-01 -1.22563474e-01 -6.10958114e-02 -2.24568531e-01 -4.57625628e-01 -4.19290036e-01 3.43773156e-01 -2.83882499e-01 9.43129882e-02 -3.23090285e-01 2.04040080e-01 1.28590062e-01 -4.82409954e-01 -4.10736889e-01 6.41475797e-01 2.15154395e-01 4.26403373e-01 2.02426851e-01 -2.60034055e-01 2.53630336e-02 -4.26004559e-01 -3.53089899e-01 4.77765173e-01 -5.57409167e-01 7.57528618e-02 3.07603050e-02 4.26716149e-01 3.59210193e-01 -9.72769633e-02 -9.35620740e-02 5.01289427e-01 1.34480834e-01 4.12565693e-02 -1.02568102e+00 -3.98176849e-01 1.63863376e-02 1.88337356e-01 -1.87820330e-01 2.41461396e-01 -3.54332566e-01 -4.70095068e-01 -8.73371959e-02 -5.79577461e-02 -8.29824358e-02 -1.85508952e-01 -5.00363372e-02 4.69953179e-01 -5.30937076e-01 -1.11180343e-01 2.71030486e-01 -4.57448810e-01 1.39289454e-01 -1.04685321e-01 3.16785157e-01 -7.07403421e-02 -2.25384921e-01 2.67837644e-01 -6.82849169e-01 8.72055143e-02 5.45649111e-01 2.16990441e-01 3.34139258e-01 2.59687036e-01 8.08486760e-01 -1.67914033e-01 -7.69747375e-03 2.92746335e-01 6.03933856e-02 -2.93221086e-01 4.07081783e-01 -2.81042099e-01 -9.80628505e-02 -6.92772120e-02 -4.18114960e-01 -2.52944350e-01 -2.97328323e-01 4.43113118e-01 -3.27783567e-03 -1.07886873e-01 -2.35771939e-01 -1.53734982e-01 -1.78977456e-02 -1.99332135e-03 2.71085292e-01 -3.99299979e-01 -2.38856822e-01 -4.37989771e-01 1.35825962e-01 -1.02466352e-01 3.06972057e-01 3.19812000e-02 3.13433819e-02 1.40001908e-01 1.44645527e-01 1.45124093e-01 9.55643952e-02 3.01910222e-01 -2.33896345e-01 -2.49470975e-02 -2.11570919e-01 -5.12467772e-02 -1.99458286e-01 -1.50837675e-01 -1.27590507e-01 -2.58134693e-01 -1.25495717e-01 6.45969570e-01 1.00600839e-01 -1.64527819e-02 -3.79565239e-01 6.41252160e-01 -9.32198539e-02 -5.16412079e-01 5.88859133e-02 -2.96809465e-01 1.83791354e-01 -2.12437641e-02 2.63917834e-01 -1.32676736e-01 -6.30284667e-01 2.11071327e-01 -4.74663675e-01 4.22836095e-01 -2.69447267e-01 5.93987703e-01 -7.18639046e-02 6.56401575e-01 2.62460709e-01 -3.52774322e-01 1.23945549e-01 2.23110598e-02 -8.71387031e-03 -1.73463345e-01 2.07569778e-01 -2.61490606e-02 2.87497133e-01 -9.18398649e-02 -1.66305974e-01 -1.61592454e-01 4.75684443e-04 -2.28314400e-02 -6.02832623e-02 -9.80975747e-01 6.70292258e-01 4.96677339e-01 5.00800371e-01 -3.51526320e-01 -9.68448669e-02 -4.00026768e-01 -9.63498577e-02 1.48999408e-01 4.01660591e-01 -1.77489698e-01 4.28243846e-01 -1.87620968e-01 -2.09781721e-01 3.10161233e-01 -6.05161786e-02
ধোবাউড়া 0.15291996 -0.06620044 -0.04875228 -0.33066902 0.19961117 -0.4525592 0.3673374 -0.6597381 0.08718369 -0.3798021 -0.09451679 0.14992473 -0.02869533 0.20098017 0.43275595 -0.03892959 0.21459696 -0.24121796 -0.0529586 0.29890203 0.09337489 0.59324545 -0.12126139 -0.14019467 -0.37633717 0.15363891 -0.08031359 0.6760127 0.2107282 0.17489782 0.00319803 -0.23677228 0.33834273 0.00441436 0.0608291 -0.02244935 0.1456113 0.28536257 0.3799415 -0.5002384 0.0415779 -0.08167328 0.30849916 0.19981812 -0.06113586 -0.00860969 -0.10150632 -0.07779288 0.5874517 -0.0795378 0.26625404 -0.23391101 -0.15323645 -0.06857409 -0.2681644 -0.0482611 -0.00841279 0.10780824 0.25060517 -0.02254336 -0.15139072 -0.04206304 0.00649847 -0.5274781 0.07852875 -0.30772695 -0.35290393 -0.22745131 0.4701489 0.4459574 0.3292403 -0.00313158 0.30124813 -0.14691578 0.20247853 -0.17216356 -0.20245592 -0.21601793 0.15773465 -0.44874755 -0.04764606 -0.05308366 -0.3880872 -0.15712088 -0.13053416 0.28510484 0.18641673 -0.03765881 -0.1402639 -0.13334267 -0.04159469 -0.42069197 0.12043368 -0.01295353 -0.3475166 0.13921323 0.32982105 -0.54395723 -0.10056434 -0.23295219 -0.05976756 0.06707155 0.51574683 -0.0539322 0.15789862 0.24244852 -0.3217524 0.05404909 0.41346535 -0.05348927 -0.07033703 0.11164498 -0.01151133 -0.19374989 0.5595251 -0.5115224 -0.09249519 -0.48312446 0.00069732 0.0564546 0.19264506 -0.29082116 -0.02721323 0.01030161 -0.07100279 0.24469353 -0.3930598 -0.35231224 -0.08173954 0.30948082 -0.1827134 0.40235573 0.1491287 0.22664413 0.32332677 0.22076967 0.03797635 0.17559351 -0.14644511 -0.3494984 0.04057708 0.09867586 0.02704314 -0.14275119 0.14297126 0.17145577 -0.42342573 0.1452904 -0.01799723 -0.1810952 0.05119691 -0.17726254 0.66952217 -0.09744853 -0.20052454 -0.40201193 -0.34111628 -0.16698126 0.0283704 0.13406654 -0.21516037 -0.46458313 -0.11005531 -0.37717077 -0.01931631 -0.47077405 0.30276302 -0.21677808 0.00499673 0.2811113 -0.00306994 -0.29130733 -0.5727662 -0.17633663 -0.66768914 0.11697427 -0.01640785 0.0870963 0.38928795 -0.1314297 0.24627164 0.06635174 -0.17064005 -0.07402255 -0.14927104 0.4252775 0.26481587 0.46265483 -0.5644352 -0.18584573 -0.06972245 0.36200088 -0.06511164 -0.17865632 -0.34037787 0.3692175 0.07817142 -0.39534253 -0.07804246 -0.04200732
হিজলা 2.45924473e-01 -2.57403523e-01 1.03362218e-01 -3.65681380e-01 2.41013482e-01 -1.58583045e-01 1.16644753e-02 -1.53356016e-01 -3.42291325e-01 -6.81892276e-01 -2.93527216e-01 2.58711725e-01 -8.56343657e-02 -3.20717961e-01 -1.11239612e-01 -2.41013661e-01 4.95880604e-01 -4.08275604e-01 1.20764494e-01 -1.23913167e-02 8.39344025e-01 3.86063784e-01 -1.64601151e-02 3.08110267e-01 -5.09164989e-01 -2.19415829e-01 -6.20697066e-02 8.16276729e-01 -7.19024390e-02 5.16740307e-02 1.31657988e-01 -9.50543210e-02 -2.76897401e-01 4.09869075e-01 -1.25838101e-01 6.63889110e-01 3.68354082e-01 -7.02803489e-04 -4.74328287e-02 -3.07269812e-01 -1.22479722e-01 1.09608538e-01 4.53329772e-01 3.31519824e-03 -3.19666982e-01 -2.66926480e-04 -1.01453893e-01 -1.27895186e-02 8.19927752e-01 1.07680872e-01 3.99669290e-01 -3.31856191e-01 2.98917830e-01 -1.70424283e-01 -4.13400829e-01 -8.52345824e-01 3.55540931e-01 3.50630283e-01 4.83117625e-02 -1.41135678e-01 1.41849339e-01 4.31466289e-02 -4.58177418e-01 -3.26879710e-01 6.46288544e-02 -2.11364314e-01 3.21181446e-01 -5.54939330e-01 2.30448514e-01 5.64188778e-01 4.09064949e-01 -6.34124577e-01 -1.79096237e-01 -3.71184438e-01 2.85158336e-01 -7.15081275e-01 -5.98182619e-01 3.63204405e-02 2.90561140e-01 -7.05038667e-01 1.85810495e-02 2.00266242e-01 -1.79800227e-01 -2.63700128e-01 7.02023387e-01 -6.65455684e-02 6.05125865e-03 -3.16779137e-01 -2.95151826e-02 -1.04167633e-01 -3.28242290e-03 -1.22965209e-01 4.38140988e-01 -6.36279061e-02 -1.91468567e-01 4.45344150e-02 3.51240188e-02 -1.15917698e-01 6.07377887e-01 -2.78063178e-01 3.04718375e-01 6.29206359e-01 3.42137843e-01 3.12521160e-01 4.61685181e-01 4.40815985e-01 3.96768361e-01 -1.31856710e-01 9.01183039e-02 2.38127541e-02 -2.40917459e-01 3.72175634e-01 3.43594216e-02 2.72615939e-01 -1.32407108e-02 -8.53869542e-02 1.15037546e-01 -5.35641730e-01 -2.02344924e-01 -9.16123390e-02 -1.06881753e-01 -3.03444505e-01 -5.32236874e-01 -6.94599822e-02 3.74932922e-02 4.48849827e-01 -3.00454259e-01 -4.96737152e-01 3.02083837e-03 -1.81423917e-01 -2.78087884e-01 4.33924139e-01 -2.74342000e-01 1.57398239e-01 2.20443800e-01 4.43659037e-01 -3.94941773e-03 1.46933690e-01 -3.60281557e-01 -2.12226421e-01 -1.69666171e-01 -3.92137431e-02 -2.64543086e-01 -1.22924276e-01 -3.84576797e-01 -1.55609176e-01 -2.23162815e-01 5.53578883e-02 1.28461182e-01 1.31297544e-01 -6.14707470e-02 -6.58250570e-01 6.17257059e-01 -2.57641286e-01 -5.62448688e-02 -5.28155029e-01 -6.56455278e-01 -6.02042854e-01 -1.77316606e-01 1.48514882e-01 -3.81770805e-02 -1.52161866e-01 -1.38831824e-01 -2.75824636e-01 4.44828629e-01 -3.06032956e-01 7.80003518e-02 -3.81229520e-01 6.48230553e-01 -2.81390194e-02 -5.70551097e-01 5.61353378e-03 -4.47113186e-01 3.61481041e-01 -9.31010544e-01 -6.05589077e-02 4.47097659e-01 1.19359367e-01 3.28793339e-02 8.20976272e-02 3.04990768e-01 -2.85534710e-01 -1.93901911e-01 -2.45373547e-01 -4.12248373e-01 5.49303770e-01 2.53950626e-01 1.73878238e-01 -1.01972058e-01 -3.20079595e-01 3.35650705e-02 2.58799374e-01 -4.60520983e-01 -8.00192240e-04 -2.57626295e-01 1.41844973e-01 -1.73022434e-01 -3.99380088e-01 -3.08692276e-01 1.36530146e-01
দোহার -0.23063879 -0.18725699 0.11901878 -0.183436 -0.07970289 -0.30331776 0.07255443 -0.10313023 0.14337909 -0.27566445 -0.45259687 -0.0908756 -0.04539081 0.13079609 0.14823146 0.06435049 0.45021424 0.14370191 0.24712564 0.1504996 0.01804756 0.3878461 -0.31069592 -0.40590596 -0.3306444 -0.09321372 0.08116204 0.54988056 -0.1605552 -0.0647422 -0.15534006 0.14705801 -0.16847257 0.18233801 0.09500242 0.13865486 0.28911287 0.13890347 -0.12745517 -0.5668524 -0.0076562 -0.26678935 -0.00214214 0.13209806 -0.00732063 -0.00291596 0.20425816 -0.48631424 0.6600888 -0.17152272 0.13573092 -0.7509712 0.0749111 0.01117225 -0.38575843 -0.12245172 0.26142845 0.04997114 0.22866242 -0.1856818 0.1472063 -0.11423494 -0.04030982 -0.09983562 -0.21834423 -0.05259136 0.05476945 -0.01328773 0.23766495 0.5821224 0.25041813 -0.25220898 0.19965272 -0.51580614 0.24697684 -0.11211521 0.21358047 -0.14932135 -0.09217067 -0.4538449 0.08607754 0.13127925 -0.29145667 -0.3238087 -0.03291833 0.1559696 0.05082647 0.30979055 -0.20307526 0.10811795 -0.10087254 -0.14776383 -0.1940838 -0.04801988 -0.35588604 0.11447395 0.03388072 -0.06796479 0.5823496 -0.29548004 0.23766449 0.6408755 0.31941298 0.15184684 0.4000367 0.36224055 -0.10349943 0.32348233 0.5421772 0.1687443 -0.47655675 0.1443326 0.09522808 0.450139 0.36648732 -0.18607593 0.10593299 -0.31341335 -0.4266256 0.16888392 0.01787935 -0.11863253 -0.3596809 -0.11095418 0.04489142 0.11488303 -0.5723301 -0.03718816 0.01630861 0.01113391 -0.19344771 0.16934353 0.23577282 -0.23437808 0.06618661 0.2368607 0.38392812 0.10935401 -0.26097825 -0.42856488 -0.08778089 0.1644507 0.29170316 0.00425129 -0.11835364 -0.15664989 -0.3633022 0.18904686 0.1686509 0.18391146 -0.12090424 -0.72848153 0.0077645 -0.5997406 -0.282033 -0.59544647 -0.06781083 -0.24585544 -0.10707263 0.12663332 -0.17156173 -0.46549115 -0.63700694 -0.1366822 0.33958253 -0.41855663 0.27184865 -0.18747814 0.6972219 0.2445852 -0.44929948 -0.07502564 -0.12684308 0.24846001 -0.7176315 -0.33726248 0.01490491 0.15489496 0.17119157 -0.07564216 0.07992127 -0.1797993 0.09681754 0.32546332 -0.41814983 0.3537605 -0.19192085 0.23852043 -0.5021105 -0.2540254 -0.00419578 0.29481333 -0.5811927 -0.13863267 -0.00769841 -0.36344445 -0.00217029 -0.24833834 -0.20615189 -0.18216673
গৌরনদী 8.85727704e-02 -1.54521137e-01 3.76649082e-01 -3.93464476e-01 -1.80058837e-01 -4.82690871e-01 -1.58793658e-01 -3.68457407e-01 8.54167789e-02 -5.34165800e-01 -1.41340941e-01 3.19879204e-01 -2.33150184e-01 -3.96316648e-01 2.49113500e-01 -7.25457165e-03 5.81816137e-01 -2.52050459e-01 5.24782658e-01 -9.25349891e-02 4.61999655e-01 -2.53026009e-01 2.68765800e-02 9.43801478e-02 -3.46160293e-01 -3.47444743e-01 3.34369183e-01 6.21087790e-01 2.32519597e-01 2.45756745e-01 1.27189066e-02 -5.84240854e-01 -3.90493214e-01 4.11303282e-01 7.03584328e-02 3.97054195e-01 1.86056107e-01 4.51117814e-01 4.69211876e-01 -4.42276746e-01 -4.76987422e-01 -8.95271450e-02 5.91867268e-02 -1.71336249e-01 -4.42829132e-01 -4.79560979e-02 -9.91338957e-03 3.35780755e-02 9.03631747e-01 5.05931564e-02 4.13087606e-01 3.61682847e-02 3.80706251e-01 -2.66892642e-01 -4.65479672e-01 -1.01027739e+00 2.96978146e-01 -3.14977556e-01 4.61435132e-02 -4.01420951e-01 1.16942097e-02 -1.99608713e-01 -1.46026880e-01 -5.23237407e-01 -4.19957280e-01 -1.70565575e-01 -1.72060341e-01 -5.08159041e-01 1.15512431e-01 3.27559292e-01 1.08518437e-01 -2.13325560e-01 2.65318066e-01 -3.39071900e-01 -4.53055982e-04 -5.99972606e-01 -5.53664804e-01 3.48253772e-02 1.53973013e-01 -1.03195918e+00 -9.19291750e-02 -1.94481730e-01 -3.31047535e-01 -7.52795786e-02 3.16754311e-01 -2.49685988e-01 1.20288879e-01 7.52049237e-02 -1.52289063e-01 3.66330706e-03 1.67886198e-01 2.43916661e-01 5.40451169e-01 -1.03026845e-01 -2.57664546e-03 2.55949527e-01 3.93292278e-01 -4.92515326e-01 4.16759700e-01 -4.73462075e-01 -9.23533589e-02 4.49322134e-01 2.73356587e-01 1.38679996e-01 3.25669289e-01 4.76039767e-01 2.49509871e-01 -1.63799450e-02 6.63908303e-01 2.38382831e-01 -5.81096649e-01 4.03686136e-01 1.65555641e-01 2.92250663e-02 6.14009202e-01 -1.77140124e-02 4.77238387e-01 -1.79314360e-01 -3.33988736e-03 1.23826355e-01 1.67033896e-01 -3.56613427e-01 -4.21741068e-01 -2.09049597e-01 6.57379255e-02 8.16050410e-01 -5.09718180e-01 -1.33786783e-01 -3.88000131e-01 -1.52914867e-01 -6.73141479e-01 4.66756225e-01 -1.71359554e-01 1.52496934e-01 -7.32173398e-02 1.65778086e-01 -2.30131336e-02 -1.41506940e-01 7.93977529e-02 -7.42004439e-02 3.93037349e-02 6.14738874e-02 4.64761674e-01 -4.19759631e-01 -3.32055569e-01 1.54176131e-01 -1.67430118e-01 5.02450317e-02 1.10215552e-01 2.75848269e-01 4.44370627e-01 -7.00354457e-01 1.76814482e-01 -3.69041771e-01 3.06586660e-02 -3.37853104e-01 -5.49309194e-01 -3.20367098e-01 -1.30052656e-01 -7.34760687e-02 -5.52192450e-01 -3.58528107e-01 -5.63940585e-01 -4.45731848e-01 6.29395664e-01 6.67819232e-02 3.74109671e-03 -4.73344117e-01 6.50918841e-01 1.56002998e-01 -4.09925520e-01 1.28435120e-02 1.28978053e-02 5.64418674e-01 -5.49124539e-01 2.45761782e-01 3.24041396e-01 9.54958424e-02 -6.29647896e-02 2.79377662e-02 5.87839663e-01 -1.03437655e-01 -1.65338874e-01 2.41513982e-01 -7.80790508e-01 5.31341016e-01 5.04737914e-01 1.11043654e-01 -3.59666497e-01 -4.82509524e-01 -1.06615029e-01 -1.80584546e-02 -2.16407865e-01 1.48810029e-01 -4.71200794e-01 -1.46876015e-02 9.93266255e-02 -6.32224903e-02 -4.79629971e-02 6.49630278e-02
কুলাউড়া -1.93751276e-01 -2.37440333e-01 -4.22627553e-02 -2.06256464e-01 4.55107272e-01 -9.82372820e-01 3.03981125e-01 -5.96787214e-01 -7.33430833e-02 -5.78998923e-01 -3.82993162e-01 4.45052236e-01 2.45928019e-01 -1.41631246e-01 5.26252091e-01 -7.01506138e-02 1.74161851e-01 -5.88376150e-02 1.43350393e-01 1.69160336e-01 1.14773951e-01 -1.10116608e-01 2.02236816e-01 -2.66381115e-01 -4.38638002e-01 3.79779696e-01 2.09321186e-01 5.24093091e-01 3.98313105e-01 6.64254963e-01 3.49625736e-01 -3.22087258e-01 -1.07396848e-01 1.81636125e-01 2.36430556e-01 2.57580996e-01 -3.10860313e-02 1.22537047e-01 6.47416040e-02 -6.40038431e-01 -1.58014670e-01 -2.70436496e-01 5.79895258e-01 -3.07036042e-01 -1.53409332e-01 -6.16297901e-01 1.27176777e-01 5.51585734e-01 6.64393663e-01 3.48859668e-01 3.10469121e-01 1.03788838e-01 -1.14650384e-01 2.10369870e-01 -6.48689151e-01 -5.17862402e-02 1.03238441e-01 6.25054687e-02 5.99057734e-01 -2.48964638e-01 -6.15072660e-02 -1.74562171e-01 -2.61104554e-01 -5.28535903e-01 -1.92820013e-01 -3.61164391e-01 1.89383611e-01 -7.98273981e-02 6.71349466e-01 4.81765568e-01 7.56504014e-02 -5.22917986e-01 4.59547579e-01 3.11667323e-01 6.07639477e-02 -3.29031765e-01 -4.55185883e-02 9.21235085e-02 2.84243286e-01 -5.96266687e-01 -5.05512431e-02 -1.03226274e-01 -3.38904619e-01 -1.97524637e-01 2.11659431e-01 1.57131299e-01 2.03853175e-01 1.70198202e-01 -1.40255064e-01 -2.18044743e-01 -2.42755741e-01 -3.29156220e-01 -1.01530083e-01 -4.86809969e-01 -2.15024650e-01 -1.19819082e-01 4.62656058e-02 -7.33125806e-01 4.79273528e-01 -5.11484027e-01 2.08198473e-01 4.52980548e-01 1.68823436e-01 -1.30038023e-01 4.62505102e-01 4.97113198e-01 -8.41741487e-02 1.52265280e-03 2.72516817e-01 4.08931881e-01 -8.80873413e-05 1.09206252e-01 3.98225011e-03 2.68537313e-01 3.42002392e-01 -2.28864029e-01 1.97601378e-01 -5.14711559e-01 -2.60759115e-01 -2.07220003e-01 -8.42341110e-02 1.75901994e-01 -3.28692824e-01 -4.43657368e-01 4.28244695e-02 -2.60842163e-02 -4.46408957e-01 -5.59877336e-01 -5.24614871e-01 4.17820290e-02 -2.42201537e-02 2.75657445e-01 -1.49112344e-01 -3.57649535e-01 -4.15727973e-01 2.67273277e-01 3.81936103e-01 1.81062579e-01 1.11374557e-01 -2.45125163e-02 1.57122567e-01 -4.53958996e-02 7.75724202e-02 -7.84849346e-01 -6.01291694e-02 4.59752008e-02 7.16307089e-02 3.85719538e-01 3.69978577e-01 -4.37871180e-02 1.67187706e-01 -4.12174433e-01 3.65955412e-01 -5.20114839e-01 -3.39171767e-01 -4.33949232e-01 -4.59328085e-01 2.72010833e-01 -5.86171299e-02 5.68771243e-01 -2.61226326e-01 8.46252218e-02 -1.43847629e-01 -1.92291081e-01 1.13763854e-01 -3.37530255e-01 3.04000303e-02 -4.76374626e-01 3.05489689e-01 -3.30586851e-01 -4.36868280e-01 -3.48474503e-01 -3.24468374e-01 4.82582226e-02 2.62015983e-02 3.38152736e-01 -9.13777947e-02 1.15302421e-01 7.34500587e-01 2.99177289e-01 2.90657669e-01 5.37761487e-02 5.83240986e-02 2.48031933e-02 -7.52322972e-01 9.43510048e-03 1.58257142e-01 -6.67308941e-02 -2.43845508e-01 1.66960480e-03 -4.16446626e-01 2.82792181e-01 -1.55653119e-01 -3.21358949e-01 -7.18792081e-01 3.47896993e-01 -1.93229795e-01 -2.11213708e-01 -2.62155652e-01 -7.56093323e-01
মেহেন্দিগঞ্জ -0.00872667 -0.46900314 0.06642035 -0.28018728 0.14903004 -0.27917337 -0.08125954 -0.19030732 -0.24571814 -0.6604667 -0.26001313 0.10026038 -0.35898632 -0.34383893 0.2638962 0.04386545 0.22955193 -0.21119854 0.29276222 0.11344677 0.54265517 0.05853275 -0.05947918 0.32805568 -0.05412131 -0.06557691 -0.24663983 0.51735604 -0.08057208 0.0680607 -0.0523058 -0.28678083 -0.18272313 0.4120593 -0.09771343 0.6427549 0.35266435 0.17801492 0.07138379 -0.27097386 -0.3093001 -0.34400338 0.26552987 -0.04317192 -0.32948777 -0.08585846 -0.15182732 0.01142654 0.75412416 -0.09567335 0.21314827 -0.06949408 0.0390962 0.17317419 -0.35158846 -0.7805765 0.103202 0.11678907 -0.10365878 -0.17167868 0.10409442 -0.22739258 -0.3513678 -0.3910328 0.03312796 -0.19965024 -0.03194881 -0.59660965 0.06084178 0.35778275 0.43475482 -0.5170997 -0.18058872 -0.495788 0.16880877 -0.131212 -0.15779409 -0.18013518 0.1850555 -1.0698478 -0.40772364 -0.07727213 -0.29024675 -0.04199453 0.50561243 -0.09637144 -0.18774956 -0.08801705 0.0504545 -0.43812233 0.0373168 -0.07020019 0.30235818 -0.00295342 -0.22871898 0.30294263 0.2996822 -0.15600207 0.7417565 -0.34278226 0.00340653 0.48380157 0.39932722 0.23513566 0.21197677 0.43146622 0.5214966 -0.3232682 0.2695083 0.12971696 -0.32898828 0.4723688 0.11088525 0.14691888 0.34880218 -0.03416847 -0.07907847 -0.3496577 -0.12606588 0.32003918 0.05841184 0.09576149 -0.27596378 -0.30716738 -0.14126384 0.10335438 -0.30817094 -0.6281435 -0.47618958 -0.25821576 -0.49821997 0.2392579 0.16898444 -0.00848733 0.2003382 0.4283975 0.4287774 0.38822463 -0.35186303 0.23069666 -0.0551418 -0.12524135 -0.04813472 -0.13757032 -0.28502238 -0.09253664 -0.1634162 -0.20069648 0.33510473 0.06498497 -0.11211262 -0.6429068 0.55379766 -0.3820484 -0.07579314 -0.46245253 -0.3963453 -0.30152467 -0.03842208 0.18765287 -0.23588537 -0.39941406 -0.32615042 -0.25398883 0.4904577 -0.33061484 -0.03244532 -0.34819156 0.735306 0.0715772 -0.39248964 0.05954545 -0.5620932 0.44036472 -0.6226884 0.21901532 0.3059331 -0.10864187 -0.05512889 -0.21709771 0.10939877 -0.37590364 -0.07728084 -0.28052604 -0.4490318 0.7238089 0.26277542 0.35503197 -0.11556855 -0.40476772 0.12343803 0.30664822 -0.48225608 0.1562612 -0.3948724 0.34997398 -0.07066967 -0.2696826 -0.3146962 0.03923884
হালুয়াঘাট 0.02064912 -0.40866554 -0.22830506 -0.40490928 0.37108755 -0.29203114 0.26011539 -0.7158951 0.27417034 -0.54604167 -0.27807966 -0.01126935 -0.07420459 -0.06468937 0.38169375 0.43509674 -0.10619856 -0.21686174 -0.06266438 -0.02652854 0.00698478 0.24094754 -0.01545583 -0.14105189 -0.5751368 0.41537225 -0.0973941 0.49556255 0.10412154 -0.07548672 0.19059499 -0.40892604 0.10843731 0.03260128 0.01508389 0.16096476 -0.12546542 0.08928832 0.44886085 -0.14611192 0.11981244 0.03468736 0.29946658 -0.00745697 -0.30160412 -0.19317082 -0.06423298 0.01881682 0.5702443 0.03005101 0.26557413 0.13719724 0.18271197 -0.00604514 -0.38745585 0.04757864 0.19704103 0.09777427 0.5814489 0.3854099 -0.04949193 0.04452495 -0.27942652 -0.5609637 0.04232011 -0.10635167 0.21286748 -0.40783104 0.40620112 0.2526518 0.17183664 -0.12850294 0.5037922 -0.02529597 0.09058253 -0.12678917 -0.3622542 -0.36376745 0.15197584 -0.177747 0.30234778 -0.11546422 -0.0751481 -0.33987853 -0.01106123 0.01417426 0.19039893 -0.11563785 -0.1582407 -0.2529826 -0.18529947 -0.33098248 0.01873771 -0.13536891 -0.13554706 0.24551223 0.3319551 -0.6921393 -0.17412038 -0.3300212 0.28149384 0.05550744 0.27793857 -0.34588662 -0.08625363 0.40148145 -0.29708815 -0.03769301 0.24070604 -0.23900372 -0.30107576 -0.01381087 -0.00332608 -0.10039217 0.44496435 -0.29151943 0.0164926 -0.66822964 0.36903715 -0.06436916 -0.09450206 0.03142603 -0.27693203 -0.01645329 -0.21005525 0.29982233 -0.5601496 -0.36161628 -0.2090498 0.06505985 -0.04766963 0.42415226 0.1713272 0.21986604 0.00109097 0.16452743 0.1684782 0.17017241 0.03369624 -0.118283 -0.20953463 0.24295901 0.27890006 -0.35706702 -0.00581577 0.12405751 -0.21004307 0.6190617 0.4164073 0.24859759 0.08273452 -0.24874415 0.48229015 -0.24776684 -0.08218717 -0.39713264 -0.17907043 -0.02088644 0.20287155 0.04869062 -0.3166724 -0.2580154 0.01725791 -0.28687802 0.1593478 -0.31553376 0.24338785 -0.3841874 0.23198725 0.20696685 0.0061578 0.22111909 -0.43468267 0.05687704 -0.5097031 0.21044281 0.05122801 0.05868791 0.5017544 0.0445693 0.12295237 0.09490447 0.04906881 -0.01499374 -0.23347056 0.45811212 0.2820205 0.22158003 -0.32577458 -0.3209297 -0.22827074 0.19528082 -0.13604945 -0.08634055 -0.20468645 0.6226733 -0.09758209 -0.17737395 0.02038944 -0.27719507
বাঘা -0.37333864 -0.22948748 0.23532437 -0.29678422 0.4250894 -0.17137127 0.13431716 0.39252487 -0.07946075 -0.04580158 -0.18421917 0.30129448 -0.1810523 -0.09831349 0.08708603 0.4020311 0.05990012 -0.44683212 0.3075813 -0.18280046 0.20563284 0.1315878 0.03746203 -0.16522138 -0.18232706 0.08004557 -0.0123914 0.30920872 -0.03582932 0.34383765 -0.08977706 0.0455355 -0.17609634 0.01968169 0.4508755 0.28621694 0.64101774 -0.03209139 0.32103297 -0.00623 0.2827081 -0.25560698 -0.0689678 0.42915255 -0.01019229 -0.15942246 -0.69081604 -0.06698222 0.14016894 -0.45043874 0.18739784 -0.26659113 -0.42579237 -0.35388473 -0.09040401 -0.01684695 0.31987423 -0.08906484 0.15893932 -0.1572109 -0.07657176 -0.32275718 0.32725033 -0.3306486 0.0399571 -0.31150028 -0.24778605 -0.37861928 0.28349838 0.14811794 0.25237 0.22846603 -0.20773506 -0.14459857 0.16142043 -0.38909596 -0.1042443 -0.05991865 0.03182604 -0.43786675 -0.21900815 -0.18705685 -0.188582 0.19774583 -0.14873405 -0.24308097 0.17559302 0.10609742 0.6446918 0.0492341 -0.0280071 0.3709514 0.00638632 -0.43072718 -0.13728303 0.0675609 0.13231176 -0.40195763 0.2514546 -0.19426428 0.28531036 0.10622753 0.42483974 -0.20275229 0.09994029 -0.03656423 -0.20426516 0.0830493 0.5737497 -0.04051501 -0.19363463 0.10268288 -0.24520539 0.00467426 0.25989598 -0.15774547 0.3307751 -0.39714026 -0.10205054 -0.11069568 0.12884566 0.18514459 0.11429624 0.00721811 0.10754241 -0.18046859 0.01286632 -0.15988016 -0.6011375 -0.60308367 -0.42356828 0.21167511 -0.07183798 0.13687345 -0.11774617 -0.05129811 0.09910136 -0.05310951 -0.19727643 -0.14677237 -0.06338392 0.43731895 0.41744065 0.16921212 -0.68439895 0.45739922 -0.2361932 0.0330006 0.537524 0.3281079 0.3103724 -0.4617377 0.12584028 -0.05073845 0.10366021 -0.16275199 0.06532734 -0.38771895 0.19210753 0.41241783 -0.27273062 -0.04304149 -0.171489 -0.67914444 -0.07427853 -0.15404361 0.80876005 -0.34481224 0.5091804 0.21627074 -0.68648684 -0.55709726 -0.13717544 0.11031459 -0.3914527 0.3457256 0.32451916 0.11940397 -0.13467309 -0.1718643 0.27995485 -0.58121455 0.1658019 0.17319216 -0.12992568 0.39281857 0.42954797 0.13985132 -0.4086658 -0.11056804 -0.32195958 0.00260854 -0.37929666 0.29166648 0.06700657 0.26555917 0.06128433 -0.3519467 0.5037495 0.16978796
গৌরীপুর -0.08684707 -0.28158563 0.04822239 -0.34620067 0.24238683 -0.6866172 0.22384353 -0.73727703 0.16805728 -0.12369081 -0.12986892 -0.00555057 -0.30492777 -0.0980716 0.32940236 0.11916196 0.5176949 0.03587136 0.21317029 -0.0018883 0.24502048 0.4560935 -0.05032602 0.05221301 -0.41770416 -0.00387627 -0.22653906 0.10137545 -0.08839913 0.3322745 0.29044744 -0.12547907 -0.03199835 0.0867023 0.27044868 0.04232847 -0.25357932 -0.00651703 0.3236081 -0.56486595 -0.02519498 -0.01342045 0.3272908 0.03172259 -0.2724353 0.04383826 -0.18100163 0.16257188 0.7040745 0.11542412 0.39394596 -0.01129624 -0.06392203 0.08094763 -0.45764428 -0.525794 0.13684589 -0.3044664 0.0646324 -0.07737314 0.06203587 0.11725931 -0.2198341 -0.534127 0.19310133 -0.07410305 -0.19083731 -0.50959265 0.5367409 0.7105949 0.27948147 -0.16159534 0.33454937 -0.13009462 0.37858576 -0.07194448 -0.31998023 -0.11658508 0.09962291 -0.78874856 0.09811569 -0.22112224 -0.3740108 -0.4136013 0.08939654 0.39099056 0.23999803 0.03459388 -0.10613281 -0.22004229 0.045214 0.09018952 0.08811031 -0.36542216 -0.4084605 0.05938474 0.42086774 -0.6146362 0.21880352 -0.31375074 0.15099691 0.2420639 0.26558325 -0.0512825 -0.00338126 0.25151217 -0.24729657 0.28964084 0.50188124 0.16518068 -0.157014 0.09980471 0.32337973 0.34398344 0.2996163 -0.613891 0.24054521 -0.3454309 -0.2514278 0.01962145 -0.01087802 -0.2414595 -0.1713152 0.43880972 0.19359465 0.3680242 -0.6019526 -0.27254346 -0.13072065 -0.05152171 -0.48275256 -0.05455205 -0.06966788 -0.02911076 -0.0639844 0.35121232 0.3110244 0.06743098 -0.23993106 -0.32941234 -0.12585345 0.1409735 0.23478413 -0.46197018 0.11565765 -0.10108624 -0.27756387 0.19427009 0.25520787 0.04482657 0.34020296 -0.3850297 0.5399921 -0.23976818 0.10170621 -0.20149471 -0.21758437 -0.09660585 -0.20479025 -0.02448247 0.17552489 -0.45095894 -0.27442208 -0.405176 0.19620895 -0.22196221 0.01055158 -0.19443749 0.21347363 -0.03798489 -0.35825363 0.07033483 -0.5416498 0.08394993 -0.47448388 0.21111369 0.07151836 0.26688638 0.4960791 -0.0153552 0.6343732 0.10550435 -0.23516627 0.21398255 -0.28979683 0.44456926 0.15588742 0.09370167 -0.6633337 -0.20985103 0.16286257 0.2682603 0.03121762 -0.08394352 -0.35744348 0.40550685 0.07447811 -0.4004522 -0.00537467 -0.2828189
কমলগঞ্জ -0.22525293 -0.3589193 0.05311857 -0.35369703 0.21185668 -0.58084387 0.05089051 -0.59162855 -0.06184709 -0.3202057 -0.15906017 0.30268183 0.03965459 -0.0513251 0.5569814 0.02965948 0.52154857 0.08979897 0.279855 0.13947496 0.16421181 -0.24206707 0.21562912 -0.49132955 -0.4820428 0.20692158 0.10003345 0.39998674 0.39007065 0.54044104 0.30908802 -0.25551605 -0.46444106 0.2074237 0.34437442 -0.06732544 0.04173805 0.29494435 -0.05596621 -0.7980564 -0.23144133 -0.03466669 0.4315388 -0.2744263 -0.05442561 -0.30082107 -0.0095179 0.38130456 0.56991863 0.07311587 0.5208247 -0.0101901 -0.15429674 0.2986771 -0.64545274 -0.00943327 0.01717944 -0.21961385 0.5007154 0.11425053 0.07374255 -0.0409923 0.06240133 -0.62951046 -0.44392547 -0.18087941 -0.33999157 -0.42512062 0.4240361 0.6558264 -0.00282666 -0.6501117 0.4948007 0.26088333 -0.23760675 -0.38297507 -0.4288155 0.27698123 0.46219948 -0.26616353 0.17924637 0.00631508 -0.6001693 -0.06596328 0.1767314 0.07602881 0.23971467 -0.1280572 -0.19405189 0.21771197 0.10910567 -0.18252529 0.00647665 -0.16546008 0.1544612 -0.32387498 0.22692063 -0.8863803 0.46610236 -0.16490257 0.43523255 0.32953045 -0.00154208 -0.08129704 0.27165788 0.24770251 -0.10088318 -0.30617368 0.30087167 0.51615727 -0.19671945 0.5196961 0.27870753 0.21914034 0.4126343 -0.45238155 0.1465871 -0.5070103 -0.17087588 0.19081771 0.14249119 -0.33302948 -0.3839599 -0.44156367 -0.01261119 -0.13843608 -0.45583314 -0.6617557 -0.12519978 -0.01695497 -0.3774575 0.01451282 -0.12468133 0.11194641 -0.2625838 0.3665982 0.17528102 0.14693141 0.16409846 -0.428348 0.3247925 0.06599876 0.42915726 -0.54053086 -0.11597483 -0.0571466 0.02074176 0.55696964 0.57689035 -0.1122638 0.32418662 -0.6142638 0.33042684 -0.4457672 -0.06258444 -0.43203324 -0.34236437 0.19109698 -0.28865662 0.16807562 -0.37719357 0.05252296 -0.30526212 -0.41617683 0.48986125 -0.2526024 0.27718458 -0.5114519 0.43414906 -0.22817677 -0.39683327 -0.3281125 -0.02818999 0.06889756 0.18235365 0.5205972 0.21927567 -0.04596119 0.512893 0.23587109 0.47100714 -0.11051922 0.04678164 0.36275092 -0.66638625 0.1953629 0.6077789 -0.06440715 -0.3700058 0.10890054 -0.03528306 0.45415303 -0.2189201 -0.3376632 -0.6271951 0.26377204 -0.36321506 -0.03586567 0.02623502 -0.5068214
মুলাদী 2.18993083e-01 -2.31106773e-01 2.00114921e-01 -3.02504808e-01 2.06426859e-01 -2.24597141e-01 -1.38400912e-01 -2.51044601e-01 -8.44344310e-03 -8.24435055e-01 -1.91772357e-01 3.40633363e-01 -2.76420623e-01 -1.35088146e-01 9.56140012e-02 1.07943945e-01 3.73537093e-01 -1.55282840e-01 3.19734812e-01 1.18969075e-01 3.96756619e-01 1.77806377e-01 -1.56763852e-01 6.66425824e-02 -2.92745858e-01 -1.34040073e-01 3.40668410e-02 6.27354920e-01 1.02206334e-01 3.78351748e-01 1.42608779e-02 -2.13192269e-01 -2.09897354e-01 3.75752151e-01 -6.25522658e-02 5.76047838e-01 4.65316445e-01 1.43147290e-01 6.54887706e-02 -3.07673305e-01 -4.47766155e-01 -9.16132480e-02 3.74149054e-01 7.72558600e-02 -3.64101738e-01 3.90062034e-02 -2.52431870e-01 7.01856017e-02 7.67959714e-01 -6.39910549e-02 2.97343045e-01 -3.25023651e-01 1.79013088e-01 -1.12022728e-01 -2.93467849e-01 -9.71910894e-01 9.16983858e-02 1.02428988e-01 -2.88403872e-02 -1.62177011e-01 5.91462255e-02 -1.27552450e-01 -3.56740266e-01 -5.61632872e-01 -3.75715941e-01 -1.33129105e-01 -5.02445921e-02 -2.47014090e-01 2.17035234e-01 4.97587502e-01 1.37607921e-02 -1.67601541e-01 2.09361687e-01 -5.86099207e-01 1.81955457e-01 -5.75125635e-01 -3.73856217e-01 9.70367901e-03 2.16020018e-01 -1.19823909e+00 -1.85333565e-01 -1.10107228e-01 -2.15296745e-01 -4.84363399e-02 3.81874740e-01 -1.14085898e-01 -1.40994027e-01 -2.64216010e-02 -8.84923264e-02 -6.19379655e-02 -2.30567873e-01 1.13006674e-01 3.99033219e-01 6.33810763e-04 -6.23185821e-02 6.05942190e-01 -3.66471224e-02 -2.90423900e-01 5.17153203e-01 -1.83197141e-01 1.06638990e-01 1.29572198e-01 6.55818284e-01 3.00238818e-01 3.98193210e-01 4.41215932e-01 2.50767350e-01 -2.44688943e-01 2.16697410e-01 1.36341229e-01 -5.73382020e-01 4.16139334e-01 2.07452685e-01 3.54353189e-02 1.25561938e-01 -2.23980814e-01 2.00813487e-01 -3.20633389e-02 -3.43508393e-01 1.96526051e-01 -2.25454316e-01 -4.28044498e-02 -3.77013206e-01 -2.95320988e-01 -1.45391732e-01 4.50064749e-01 -5.01156628e-01 -6.19355023e-01 -2.71336108e-01 -3.96437906e-02 -3.59209120e-01 5.45547247e-01 -1.00858420e-01 1.57859325e-01 1.36030376e-01 4.65448797e-01 -6.79557249e-02 -6.28984869e-02 -1.62013605e-01 -9.82617289e-02 -6.88883513e-02 8.63409936e-02 1.14125170e-01 -3.80390584e-02 -4.32739675e-01 -1.32092610e-01 1.18155256e-01 7.95459971e-02 3.03435326e-01 2.21226178e-02 9.32811573e-02 -5.80500782e-01 6.34399414e-01 -4.64573085e-01 9.38541070e-03 -3.80160809e-01 -6.61262691e-01 -4.03938502e-01 1.08631223e-01 -2.80739088e-02 -8.97167996e-02 -4.24252033e-01 -1.97028831e-01 -4.81293023e-01 4.93235916e-01 -1.24816775e-01 -6.11930154e-04 -4.29418147e-01 7.18794227e-01 3.03413361e-01 -4.39216465e-01 2.59124726e-01 -5.56338251e-01 4.55563307e-01 -4.56583291e-01 1.19672678e-01 1.21730603e-01 1.07571138e-02 -1.06866904e-01 -8.90741572e-02 1.49856627e-01 -3.50100279e-01 -2.82264382e-01 -8.17156583e-02 -4.63849604e-01 5.21970391e-01 3.83834213e-01 1.74553230e-01 -4.29513156e-02 -4.54473615e-01 -1.71069682e-01 -2.04509147e-03 -3.42671752e-01 9.93497148e-02 -2.88848281e-01 1.63834095e-01 -4.05399390e-02 -1.88046545e-01 -3.49020094e-01 -3.37279178e-02
বরিশাল 0.36423394 -0.01796495 0.27868107 -0.5327718 0.17736077 -0.02872803 -0.02736785 -0.5618308 0.04843882 -0.76160055 0.0516008 0.33370012 -0.32030177 -0.29620132 0.06966387 -0.0852033 0.09633428 -0.33407092 0.43632215 0.26702943 0.2454297 -0.10191111 0.25453022 -0.38189542 -0.45892864 -0.33664626 0.36197063 0.22057343 0.32280642 -0.16230999 -0.41928506 -0.47978407 -0.42682973 0.1000566 0.17545457 0.7664837 0.09685009 -0.06029559 0.28763193 -0.12872538 -0.19742103 -0.1285871 0.2433041 -0.1958777 -0.11798981 -0.04264663 -0.35498264 -0.02377617 0.26526165 -0.10021215 -0.21981654 0.18589656 0.44495216 -0.4900344 0.11662462 -0.7356697 0.34708294 0.13026226 0.03201707 -0.43601102 0.5450124 -0.02035102 -0.45269313 -0.28363305 -0.3415163 0.0014006 -0.17465211 -0.17950764 -0.24004854 0.4001099 0.15697767 0.11988576 0.26235247 -0.38760844 -0.02794975 -0.4151847 -0.5432339 -0.11122347 0.00140191 -0.7387937 0.14284196 -0.106856 -0.40392193 -0.36721173 -0.0293681 -0.3857126 0.10982317 0.22814503 0.14828995 -0.03103498 -0.15599968 0.27068582 0.6588122 0.14769664 -0.05199793 0.26205498 -0.05501788 0.0467305 0.53927225 -0.06913932 0.00142965 0.53949374 0.1490101 -0.18104498 0.30545914 0.18389408 0.5312604 -0.4066179 0.20480111 0.35310316 -0.33340558 0.34138513 -0.101749 0.18325536 -0.08668976 0.01617251 0.03583265 0.11609618 0.1969615 0.35905132 0.27466616 -0.39951897 -0.0484152 -0.3359575 -0.2759207 0.18994717 -0.30445346 -0.40882203 -0.3768147 -0.12613529 -0.2737887 0.22479773 0.03282346 0.02190436 -0.34125453 0.09581149 0.17094101 0.02075649 0.2920859 0.09407314 -0.2709293 0.1578012 0.41185647 -0.38798162 -0.12478924 0.18363225 0.15238304 0.31609705 0.1619369 0.47842705 -0.13617818 -0.64630216 0.47217193 -0.08239166 -0.02883265 -0.2134764 -0.06321098 -0.25662506 -0.25479478 0.0383335 0.06924228 0.01568961 -0.32258302 -0.369358 0.39085108 0.19326682 0.24786043 -0.3684278 0.633864 -0.07328397 -0.35918456 0.2788056 0.04384447 0.06724712 -0.19837959 0.15111852 0.14390002 0.05269448 0.122517 -0.14001526 0.40411216 -0.05421461 0.00105236 0.11145137 -0.24915642 0.3313895 0.29198432 0.11908593 -0.36418223 -0.46229902 -0.21351261 0.04957044 -0.30121872 0.26695946 -0.37337157 -0.13314378 0.15999395 -0.03013054 0.09102257 -0.03643062
চারঘাট -0.19370316 -0.12633248 -0.07258262 -0.02316917 0.07787558 -0.2057854 0.11473104 -0.26387402 0.05556853 -0.09190906 0.06637397 0.49024445 -0.4606848 -0.22679214 -0.01741044 0.04715804 0.33077693 -0.26983163 0.36785752 -0.12276133 0.11465671 0.24100587 -0.08162601 -0.23805892 -0.1996655 -0.03486584 -0.22762176 0.46118355 -0.15192178 0.5654827 -0.39801922 0.24892901 -0.04255852 0.2829013 0.41336533 0.27125642 0.33779764 0.01627749 0.15599953 -0.40064654 0.03492328 -0.2970331 0.43961948 0.07648031 0.12596084 -0.27432233 -0.40562704 -0.10371868 0.58062214 0.26762542 0.63268125 -0.22319017 0.41211084 -0.39318457 -0.5297894 0.11058649 0.59656745 0.08484747 0.40834364 -0.33139685 0.23063059 -0.32581398 -0.13323976 -0.74014294 -0.23426868 -0.27565083 -0.0725886 -0.54184324 0.44557315 0.39594236 0.14236283 -0.74149823 0.31265807 0.0111118 0.3320453 -0.5995649 -1.0796988 0.18102463 0.28005227 -0.8268567 -0.22228386 0.0588853 -0.05250869 0.1615873 0.09097854 -0.04662854 -0.04650182 0.10133415 0.37199643 0.3241407 0.04621764 0.1417851 -0.03808328 -0.40914676 -0.41732815 -0.05787499 0.14454822 -0.69678503 0.2337845 -0.47148097 0.09752118 0.14583522 0.34155825 0.219772 0.52823967 0.34897283 0.05580191 0.16711842 0.5110396 0.2007963 -0.13481642 0.36780038 -0.21445493 0.20789957 0.22107257 -0.33469114 0.21755159 -0.55701596 -0.19002725 -0.2362199 -0.07528543 -0.07741845 0.06098229 0.06275974 0.3639979 0.17203747 -0.30287823 -0.12678932 -0.49046004 -0.2843168 -0.12034734 0.8034082 -0.13053882 0.2706575 -0.14668404 0.34981325 0.12820175 0.20444629 0.06246719 0.08196471 -0.01167189 0.35725835 0.35694835 -0.13591029 -0.37629905 0.05162112 -0.0891781 0.31414086 0.75187725 0.4807227 0.30895114 -1.0150446 0.3179323 0.1973595 0.00932245 -0.3106995 0.0217893 -0.32405132 0.17150782 0.08960285 -0.14035337 0.19834565 -0.01629019 -0.2387609 0.06846815 -0.02726936 0.4353386 -0.3241839 0.6568835 0.2710302 -0.6606777 -0.4740684 -0.25005102 0.41435888 -0.19565013 0.56043166 0.2247628 0.45513046 -0.2582139 -0.13255572 -0.01510156 -0.17695753 -0.09756016 -0.03576171 -0.6191481 0.42246732 0.36010656 0.29240826 -0.39835185 -0.14522092 0.13195953 0.35596076 -0.04680828 -0.0469308 -0.26655677 0.10073912 -0.23517746 -0.20413268 -0.02378354 -0.1788259
পটিয়া -0.06870845 -0.29697084 -0.04784216 -0.32110006 0.27710685 -0.39791185 -0.06724527 -0.64655674 0.34577498 -0.43772444 0.03881891 -0.14002872 0.13022469 -0.06079888 0.02836699 0.33179367 0.22300209 -0.01509674 0.22569384 0.48226634 0.1054491 -0.30068678 -0.50516856 -0.40760094 -0.5344255 0.5569178 0.386927 0.14184336 0.00460705 0.37897807 -0.15002578 -0.17152563 0.14523579 0.0389398 -0.14222498 0.23491864 -0.00315954 0.52971494 0.35535315 -0.47878227 0.15314448 -0.51219046 -0.00786995 0.2685568 -0.33884943 0.02956612 -0.19499537 -0.11295156 0.7625217 -0.13164724 -0.11884536 0.3438002 0.10047758 0.11354709 -0.10331692 -0.78830755 0.25958687 0.0309671 0.51147527 -0.02407273 -0.24693929 -0.33043864 0.09802023 -0.37607583 -0.28258362 -0.06445361 0.02027914 -0.12165032 0.42920393 0.6031283 0.08312213 -0.12696767 0.5713143 0.23427622 -0.14893697 -0.40707532 -0.30353054 0.3683057 0.39116892 -0.5136597 0.36499304 -0.15798463 -0.51238966 -0.04569831 -0.5847063 0.11031258 0.16139421 -0.33946675 0.07196242 -0.5845506 0.2007963 0.04489922 0.25359875 -0.17811106 -0.04874111 0.21026452 -0.3079019 -1.0099893 0.34121597 -0.02397816 -0.3633833 0.10615723 0.62551033 0.0700727 0.12040773 0.14056413 0.09215453 0.0403625 0.5432923 0.33341202 -0.30713248 0.29535162 0.08757932 -0.2732331 0.48844126 -0.34310073 0.06575556 0.06679876 0.3368043 0.2689039 -0.47726968 -0.135397 -0.28744423 -0.12361692 -0.16824634 0.751812 -0.59369034 -0.3996859 0.11501148 0.0725679 -0.2828934 0.01754289 0.06670005 0.28587493 -0.21818691 0.42415792 0.05813593 0.13496093 0.16031183 0.02666436 0.09242303 -0.04940629 0.5500557 -0.36874667 -0.18555501 0.4354228 -0.17848136 0.7773735 0.22551337 -0.10023961 0.10471427 -0.21158436 0.5350312 -0.61805266 -0.07503921 -0.937347 -0.2065522 0.07357181 0.08311553 0.2583122 -0.07042034 -0.18793023 -0.37607482 -0.51597434 0.38938707 -0.3466484 0.10524467 -0.19528681 0.909873 -0.16294433 -0.01569134 -0.13260482 -0.15945566 -0.08261338 0.09620412 0.31405523 0.11382526 0.04963621 0.06205856 -0.01897295 0.3306893 0.12759045 0.32195398 -0.03987647 0.08454125 0.61846226 0.36820808 0.15342443 -0.6244709 0.4062108 0.2380629 0.6667226 0.2256826 -0.14412674 -0.22452329 0.29027212 -0.23191565 -0.1655258 -0.09539578 -0.35174158
ঈশ্বরগঞ্জ 0.18287478 -0.36473775 0.333305 -0.70394325 -0.07150815 -0.6671599 0.0899421 -1.0051227 0.13280928 -0.22420515 -0.12873508 0.16509917 -0.06945994 0.14696145 0.50636655 0.3404019 0.44531026 0.24227923 -0.03546399 -0.39929616 0.23761821 0.33837086 0.11564333 0.08835743 -0.3464344 -0.08587745 0.11109766 0.29133502 0.18259011 0.13274057 0.26077548 -0.00769721 -0.426832 0.21032315 0.34656647 -0.03749292 -0.3672591 0.01661075 0.48836523 -0.7546242 -0.41212058 0.23259863 0.48783055 -0.03144303 -0.16437164 -0.21780525 -0.12951471 0.26832694 0.7222131 0.07659524 0.4558415 -0.08930342 0.02602129 0.01256205 -0.46159396 -0.09178209 -0.029446 -0.3441046 0.29787964 -0.10688538 -0.09886848 0.00322221 -0.28054908 -0.5811391 -0.29334232 0.11965895 0.01674607 -0.4188311 0.5731191 0.72706723 0.10112596 -0.33713967 0.5821774 -0.06611902 0.32676208 -0.21717082 -0.627605 0.18065421 0.19205442 -0.79507136 -0.13808528 -0.05180773 -0.2924823 -0.3129743 0.2949761 0.34558743 0.32354513 0.01106913 0.04422303 0.10621435 0.2048043 0.3709514 0.16441633 -0.21974498 -0.28278244 0.26961324 0.4843841 -0.72233874 0.50145036 -0.2382298 0.20540503 0.23368952 0.1497809 -0.0098245 0.12435162 0.61358446 0.03088899 0.01711038 0.48167095 0.18571754 -0.37319416 0.1632858 0.30618978 0.33162695 0.22420168 -0.37559387 0.24569328 -0.52992284 -0.19655353 0.28539184 -0.20289528 -0.3185015 -0.12926139 0.15146235 0.11126307 0.5622275 -0.6613161 -0.26277384 0.02561037 0.08243588 -0.36933383 0.2609889 0.30426136 -0.17364308 -0.08200487 0.2166668 0.09845706 -0.09119161 -0.2326835 -0.5342753 0.06428652 0.14677064 0.33682042 -0.46842316 0.06490497 0.12333224 -0.14279261 0.31029245 0.23602502 -0.08529335 0.44049504 -0.35806534 0.4775456 -0.2589876 -0.1011803 -0.46335602 -0.31964126 0.02569796 -0.29452464 0.03928044 -0.12415843 -0.04731369 -0.2542665 -0.22674613 0.28512526 -0.36386198 0.03390426 -0.31013766 0.24860999 0.20884182 -0.4668686 -0.2288184 -0.3233266 0.06408362 -0.47848013 0.3023008 0.11106753 0.31235826 0.37492245 0.14753427 0.60725385 0.11472485 -0.31180558 0.16830884 -0.40351257 0.4898162 0.14217907 0.30078042 -0.8954409 -0.27390888 0.30600688 -0.04764283 -0.00753249 -0.13931409 -0.44516397 0.11007318 -0.07246137 -0.22980624 0.10000142 -0.2293786
রাঙ্গুনিয়া -0.4523719 0.00193499 0.10453051 -0.23164931 0.27565187 -0.74164665 -0.6025729 -0.6798545 0.18021744 -0.38929018 -0.06070663 0.15749079 0.1526598 0.24534135 0.25338495 0.03464848 0.05480453 -0.36052838 0.3477291 0.43465748 0.09228963 -0.04695065 -0.22413245 -0.5481562 -0.58943665 0.35137016 0.08115187 0.31818092 -0.23749943 0.28589633 0.13949129 -0.35515264 0.2386975 -0.00520249 -0.11498163 0.35438636 0.01215125 0.46350294 0.3421948 -0.5249833 0.2544974 -0.04612771 0.09151615 -0.17048718 -0.22440325 0.2897052 -0.39160776 -0.24845375 0.66367453 -0.07892236 0.10897211 0.08521834 -0.1491239 -0.00854052 -0.4517573 -0.5910244 0.0575245 0.10846087 0.7446849 -0.19735746 0.06831225 -0.29354066 0.06936967 -0.5049005 -0.37683463 -0.18628478 -0.42253917 -0.02097453 0.5322131 0.39131504 -0.12686136 -0.322856 0.55686384 0.08334401 -0.20831831 -0.5801975 -0.28819343 0.5419178 0.1386871 -0.57597923 0.22051841 -0.34869528 -0.7461599 0.3312848 -0.42329037 -0.04782023 0.09746515 -0.08140855 0.15762483 -0.21979652 0.17042224 0.07422539 0.04768574 -0.24149342 0.01489606 0.19534756 -0.016252 -1.0134852 0.40449393 -0.14596796 -0.26523748 0.05366385 0.5197364 0.2660062 0.21045959 0.22582978 -0.15906695 -0.10022507 0.69799954 0.19965148 -0.39993775 0.50706476 0.36995202 -0.04256894 0.41084978 -0.14607018 0.13869882 -0.9295479 0.20001753 -0.2188896 -0.32493675 0.0412176 -0.58554935 -0.29872394 -0.348431 0.7236799 -0.45219782 -0.37547895 0.13306561 -0.01479733 -0.45567352 0.09888908 -0.06909987 0.37323803 -0.15395391 0.62491626 -0.09690919 -0.04319923 0.1546734 -0.04212254 0.04839236 -0.15479492 -0.01127072 -0.30833977 -0.400823 0.20688541 -0.12818794 0.5988411 -0.01800278 -0.47494185 0.11163583 -0.61729884 0.36941585 -0.45682675 -0.11330067 -0.8433082 -0.48302332 0.30398488 0.489615 0.344613 -0.08995682 -0.5221716 0.03323019 -0.35510167 0.2271971 0.12301949 -0.2771589 -0.2509395 0.8205889 -0.30304566 0.02304469 -0.10696197 -0.5601737 -0.21771048 -0.20999551 0.12093616 0.03584545 -0.040209 0.15184076 -0.02064048 0.22950052 0.17578268 0.07482168 -0.15571761 -0.4005881 0.31305766 -0.04949189 -0.22489099 -0.39644095 0.42206618 0.3818953 0.52474576 0.00475649 -0.25925618 -0.34267688 0.34353435 0.01258253 -0.1138901 -0.27527663 -0.47777045
মীরসরাই -0.37492174 -0.23742114 0.00958667 -0.54352564 0.05269785 -0.53876007 -0.3467192 -0.29774675 0.171809 -0.5462615 -0.30076563 0.07563712 -0.1835205 0.23091869 0.26902604 0.00380378 0.3061986 0.12202957 0.3038353 0.06307722 0.35015616 -0.1400703 -0.17386557 -0.04821604 -0.4788521 -0.14729643 0.02774442 0.2963525 0.01043889 0.48353383 -0.18305911 -0.27750385 0.08228206 0.00172792 0.1762532 0.22398156 -0.08071668 -0.03208049 0.17155628 -0.86803865 0.04731451 0.00595846 0.07778496 0.14951307 -0.42612693 0.13077472 -0.5369029 -0.07743283 0.40308973 0.4819826 0.18981834 0.1809152 0.11302669 0.21337612 -0.6059645 -0.63119745 0.15667059 0.1603364 0.47657692 -0.10098078 -0.31780392 -0.23647363 0.15074548 -0.6096998 -0.22592182 -0.0998335 -0.09852785 -0.3325962 0.11185235 0.5622011 0.18757743 -0.13437618 0.21312797 0.08240078 0.0191342 -0.18942788 -0.31601533 0.5245103 0.05614098 -0.76327735 0.21797653 -0.3638402 -0.79569453 0.08599924 -0.09851632 -0.0086439 0.32003593 -0.3907918 0.05206507 0.365839 -0.09822149 0.22797915 0.3303382 -0.21080585 -0.2675837 0.30920735 -0.11000176 -0.41280824 0.29627535 -0.0983058 -0.06896079 0.28305852 0.41532233 0.3525272 -0.12064045 0.14368667 0.04753067 0.14445715 0.26682392 0.25755683 -0.29414928 0.08734554 0.43315274 0.13965224 -0.11622638 -0.30238226 0.31231263 -0.58963084 -0.03421398 0.19997452 0.07508178 -0.22132555 -0.4004606 -0.03983946 -0.3325198 0.5596331 -0.17791864 -0.6472521 0.452664 -0.40779683 -0.69206643 -0.12309998 -0.28223822 0.0649043 -0.30480248 0.5953595 0.11760688 0.15841375 0.5849324 0.10852375 -0.11721186 0.23190595 0.29638964 -0.07407264 -0.3385671 0.17155789 0.17875583 0.2253941 0.4087467 -0.21100982 0.38633245 -0.6414248 0.15711121 -0.26860145 -0.05257003 -0.63444185 -0.4592565 0.05471862 0.08330546 0.0453475 -0.15684658 -0.18871911 -0.33601326 -0.62268794 0.3868046 -0.2578135 -0.34138927 -0.21133578 0.64397997 -0.11467618 0.10933467 0.01909397 -0.5046393 -0.00708071 -0.04242296 -0.01068429 0.16500689 0.3037296 -0.2580708 -0.34944057 0.51032186 0.28746858 -0.05817465 0.05490159 -0.00458284 0.3511417 0.0261761 -0.08758715 -0.40423843 -0.11448314 0.36718112 0.43586326 -0.01166675 0.00886549 -0.39091346 0.38675162 -0.6730442 -0.5898146 -0.15748236 -0.12159925
তারাকান্দা 1.91021800e-01 -1.62668481e-01 4.33809191e-01 -5.33923090e-01 -4.79822233e-02 -5.74975193e-01 3.11889380e-01 -8.60972166e-01 1.15193322e-01 -2.46719941e-01 -1.13322008e-02 -1.37703465e-02 -3.70144367e-01 2.01308265e-01 4.06336248e-01 2.95561314e-01 2.74606079e-01 1.30496860e-01 3.26116204e-01 -2.17844084e-01 5.31686187e-01 4.89873141e-01 3.08212727e-01 -1.53707445e-01 -3.25721890e-01 1.10174783e-01 4.08865586e-02 2.71150053e-01 3.25288288e-02 3.50998163e-01 1.93006679e-01 -1.01524338e-01 -7.60516524e-02 5.93344629e-01 7.78343678e-02 -5.93344420e-02 -1.66266352e-01 2.49800086e-02 4.90688831e-01 -8.22788298e-01 -1.27923056e-01 -1.88755170e-01 4.76405293e-01 1.61888570e-01 2.99786124e-02 -3.02591860e-01 -1.17793366e-01 -1.09236918e-01 5.09839535e-01 8.13701823e-02 5.34799874e-01 -3.92151803e-01 2.21955761e-01 2.03084841e-01 -3.27149212e-01 -1.24153554e-01 5.39615005e-02 -2.81173408e-01 -1.82809215e-02 -4.27322462e-02 -6.96593001e-02 -1.68962762e-01 -2.55858392e-01 -7.09743381e-01 3.44906613e-04 1.15432300e-01 6.60355240e-02 -4.24963087e-01 4.72136974e-01 7.65038610e-01 2.88687319e-01 -4.07373726e-01 7.06148565e-01 -1.53218091e-01 3.55677813e-01 2.30810493e-02 -5.64821899e-01 1.06980428e-01 7.02242926e-02 -8.72312665e-01 -1.06020778e-01 1.24879405e-01 -1.93537191e-01 -3.60940367e-01 1.82878915e-02 3.47339153e-01 -8.79843011e-02 -1.47920445e-01 1.15783855e-01 1.33324727e-01 3.17739137e-02 -2.22843722e-01 -4.03221548e-02 -7.68321902e-02 -1.49846688e-01 -8.87766257e-02 2.43947148e-01 -5.42520165e-01 2.05641747e-01 -4.35883850e-01 1.96303502e-01 3.62713546e-01 5.85983217e-01 1.31196722e-01 1.79213241e-01 3.73773962e-01 2.74138972e-02 2.58072346e-01 4.64685678e-01 -7.87218567e-03 -2.67447293e-01 3.44613940e-01 1.95022374e-01 4.32183802e-01 1.57557100e-01 -6.78959310e-01 1.31004766e-01 -7.60148406e-01 -3.89728993e-01 3.83164287e-01 -1.70439705e-01 -3.19844574e-01 -1.95640951e-01 3.83615643e-01 4.66041088e-01 4.07351673e-01 -4.80105788e-01 -4.01847124e-01 -1.41664445e-01 4.23713595e-01 -7.59711266e-02 1.75160959e-01 2.94358507e-02 -1.33779585e-01 -1.58750415e-01 2.93358862e-01 4.46022540e-01 2.44726300e-01 -2.49184042e-01 -7.62309849e-01 1.62220299e-02 2.49240026e-01 2.71302611e-01 -4.27366257e-01 4.16076072e-02 6.27904981e-02 -1.12207554e-01 6.25886098e-02 3.92960370e-01 -2.12617174e-01 3.08355242e-01 -4.03285325e-01 3.50749165e-01 -1.77581549e-01 9.40903202e-02 -2.30482295e-01 -4.94146496e-01 -3.29813659e-01 -6.61313906e-02 -4.06864583e-02 -2.09807828e-01 -3.54349643e-01 -3.64389449e-01 -7.21030757e-02 4.22943860e-01 -1.00495256e-02 -1.17407978e-01 -3.82087380e-01 2.50981539e-01 1.75801009e-01 -2.79680640e-01 -3.12047213e-01 -6.51085138e-01 1.04505494e-01 -6.46251082e-01 3.21114473e-02 1.39790297e-01 5.14346778e-01 1.86274022e-01 -6.99842498e-02 7.31666863e-01 -8.45951214e-02 -3.25828642e-01 -1.68905988e-01 -2.82108814e-01 7.09640980e-01 2.64055938e-01 3.80532146e-01 -5.16408622e-01 -1.82908773e-01 2.26925090e-01 2.88984012e-02 -2.47941718e-01 1.60632938e-01 -1.68278739e-01 4.50299501e-01 -7.84929283e-03 -1.26993805e-01 1.95114501e-02 -1.58881992e-02
দাকোপ -1.23481616e-01 -2.03824073e-01 8.39806870e-02 -9.18115079e-02 4.95519727e-01 -1.04192056e-01 4.03665781e-01 -2.64272969e-02 -1.44915819e-01 -8.75284553e-01 -8.26126188e-02 2.71138787e-01 -2.61319727e-02 -1.43006995e-01 1.75494507e-01 -2.00396448e-01 4.77369487e-01 -3.57840687e-01 2.48947233e-01 -1.38138980e-03 1.30990714e-01 8.09089765e-02 -2.45470971e-01 1.07501678e-01 -3.14229161e-01 2.74465591e-01 2.07185656e-01 6.22882903e-01 1.30013507e-02 -4.92385849e-02 -2.62078851e-01 -2.83165932e-01 -3.96004081e-01 3.73956859e-01 2.87703890e-02 7.44963467e-01 4.78976965e-01 1.49792567e-01 8.71388838e-02 -6.87108263e-02 -6.87009841e-02 -9.39235240e-02 2.61584073e-01 4.43132520e-01 -2.07016364e-01 -1.69583410e-01 -4.72870350e-01 -4.05891061e-01 3.20052981e-01 -5.35471290e-02 2.16795295e-01 -3.62544388e-01 9.07431915e-02 -2.47374266e-01 -2.56869290e-02 -1.58535436e-01 3.89810801e-01 2.76764452e-01 4.99679983e-01 -9.13647860e-02 2.77832478e-01 -2.05837294e-01 -2.76843876e-01 -7.05139875e-01 -4.39190328e-01 2.56325454e-01 -4.13657837e-02 -4.70887333e-01 3.65235478e-01 5.81155717e-01 2.04185709e-01 -5.21364450e-01 9.28537846e-02 1.91101864e-01 2.25594118e-01 -1.11900306e+00 -2.29917988e-01 -1.47017494e-01 4.38392222e-01 -6.51363969e-01 -9.99766886e-02 -1.51058435e-01 -6.10801995e-01 3.01857721e-02 3.19669664e-01 4.40745316e-02 -8.27020407e-02 -4.71787721e-01 -1.11302212e-01 2.46775210e-01 -7.74382576e-02 -1.98142186e-01 3.32878828e-01 -3.83317545e-02 -5.54833651e-01 -1.41714826e-01 -1.67456940e-01 -1.88619629e-01 2.67786264e-01 -1.30613670e-01 1.51722997e-01 1.68008834e-01 3.80889326e-01 1.25239819e-01 9.63052750e-01 6.11817837e-01 -5.86143062e-02 -3.00304383e-01 2.71545470e-01 -6.79040179e-02 -9.51995254e-02 4.69518572e-01 -4.35341429e-03 -3.98323387e-02 3.85251582e-01 -1.63842261e-01 -4.67320025e-01 -2.56721675e-03 3.21217209e-01 5.19629002e-01 -1.06465794e-01 -9.36100259e-02 -4.82131094e-01 -3.29703152e-01 9.81304124e-02 3.88275236e-01 -2.69509971e-01 -3.93432111e-01 1.63290337e-01 -2.05720291e-01 -5.13258696e-01 1.55269250e-01 -8.86659771e-02 2.54071176e-01 -1.97107434e-01 4.48757887e-01 2.27435827e-01 1.99837193e-01 -1.66259706e-01 2.76553035e-01 -1.36261016e-01 6.73325181e-01 1.92084000e-01 -5.94955571e-02 -2.34546512e-01 -3.66925597e-01 1.84237137e-01 2.97910810e-01 2.92360008e-01 -7.61466399e-02 2.39518937e-02 -7.78115988e-01 6.02502882e-01 -4.19688016e-01 -9.12194774e-02 -1.08623467e-01 -6.07712626e-01 -2.42593676e-01 1.11750111e-01 -3.23429465e-01 -1.23838603e-01 -3.99792939e-03 -9.93398204e-02 -6.07460618e-01 6.94758594e-01 -2.11922638e-02 5.27634323e-01 -5.84271550e-01 7.03295290e-01 3.21595371e-01 -1.35638462e-02 2.68178046e-01 -1.13338567e-01 2.61570811e-01 -8.18400323e-01 1.86158210e-01 -4.64486703e-02 1.23826757e-01 -1.61939114e-01 -2.05008835e-01 -1.10489435e-01 -1.51746735e-01 3.81993204e-02 -5.22801280e-01 -4.39829588e-01 7.53783286e-01 3.71416137e-02 2.18694195e-01 -1.81449190e-01 -6.01427436e-01 1.67747885e-02 2.15330556e-01 -1.74895436e-01 -8.23179483e-02 -4.03650813e-02 2.13457315e-04 -1.06835254e-01 -2.67179459e-01 -4.75893393e-02 -5.93511239e-02
ফুলপুর 0.01001886 -0.15342464 0.29594952 -0.8329857 0.08567168 -0.5902745 0.46373147 -1.0447774 0.02234389 0.01513063 -0.0224653 0.00931213 -0.1697236 -0.04205546 0.26354882 0.22243887 0.32810363 -0.09510721 0.16017228 -0.06545728 0.27320346 0.38168648 0.31501642 -0.1654061 -0.28057608 0.19936132 -0.0242575 0.2630245 0.34332272 0.41943628 0.47523758 -0.00116203 -0.13189782 0.33901855 0.223974 -0.12251302 0.0197048 0.13487034 0.3185704 -0.90265 0.02988204 0.05654987 0.39828658 0.19446151 -0.3147867 -0.13336079 -0.04558207 0.06831264 0.6996048 0.18285084 0.6351425 -0.451747 -0.08585256 -0.0411105 -0.47937799 -0.24966164 0.10536774 -0.30729666 0.35542673 0.22516024 -0.09602404 0.11829927 -0.18382725 -0.66551405 -0.16218503 0.0286807 0.04612722 -0.6407123 0.27281752 0.3424927 0.06973474 -0.4670464 0.40914688 -0.15792939 0.38015077 -0.21089637 -0.7272385 -0.08129005 0.25711688 -0.6924774 -0.08159334 0.20496446 -0.17423388 -0.44327527 0.5808437 0.19356827 0.03462627 0.05049986 0.07949167 -0.11584691 0.13816823 -0.11062038 0.03650247 0.12263005 -0.23489039 -0.10689811 0.6058262 -0.43297443 0.35937688 -0.07524828 0.21422729 0.2640797 0.18915185 -0.23542616 0.14046133 0.5788886 -0.20717317 0.2988373 0.42680782 0.30029398 -0.46796018 0.29670763 0.30595905 0.26335502 0.1502781 -0.34688818 0.20794511 -0.60618186 -0.1162214 0.30849096 -0.31444612 -0.2096487 -0.17485826 0.192349 0.17282808 0.5289369 -0.44068497 -0.52964896 -0.1921656 0.2245358 -0.25721803 0.27067783 0.28199437 -0.04395026 -0.12094424 0.36886492 0.358858 -0.09387492 -0.2131181 -0.51017445 -0.11803607 -0.00921346 0.40021744 -0.5947747 -0.1254404 0.09676278 -0.15077654 0.19491678 0.14652543 -0.10892151 0.00952328 -0.49951813 0.5115461 -0.21407877 -0.22323282 -0.2883511 -0.3293858 -0.12296796 -0.3536353 -0.21867116 -0.07276491 -0.22729945 -0.27592176 -0.33881423 0.25650886 -0.15256983 0.19204994 -0.08442379 0.21240816 -0.09268863 -0.42985716 -0.15883058 -0.76163274 0.1977696 -0.5444515 0.01330496 0.03536046 0.56196064 0.33535162 0.29427776 0.689377 0.06576999 -0.19008714 -0.0350717 -0.2934552 0.3917357 0.27008823 0.5491498 -0.57481784 -0.30153158 0.3489675 0.01363094 -0.29818836 0.15380698 -0.26123947 0.23470351 0.27813455 0.01296399 0.11321566 0.04217477
ডুমুরিয়া 2.05917135e-01 1.66998684e-01 1.93036541e-01 2.80817002e-01 3.37327659e-01 -1.63642615e-01 7.63168484e-02 -2.71008104e-01 -1.73805654e-02 -4.96199667e-01 1.27945766e-01 4.35093403e-01 -1.58535182e-01 -3.02600563e-01 -2.18850628e-01 5.05268350e-02 1.75782621e-01 -4.45170224e-01 4.41976368e-01 -1.71450183e-01 2.26405948e-01 2.58334339e-01 -1.82570145e-01 -1.80445269e-01 -7.62511790e-01 -7.39008859e-02 2.10105941e-01 7.12131083e-01 3.81739214e-02 -2.15665013e-01 -9.25217420e-02 -2.02946335e-01 7.23261759e-02 5.21484077e-01 -5.90051711e-02 9.57171798e-01 3.64875764e-01 5.49693286e-01 3.86874110e-01 -2.30949670e-01 1.90222546e-01 -9.30088013e-02 2.84456074e-01 8.77690092e-02 -8.79180208e-02 -2.84056127e-01 -3.34862679e-01 -4.35311496e-01 6.49756610e-01 -1.63886324e-02 2.28381574e-01 -4.33441252e-01 8.72726515e-02 -1.64255857e-01 -2.63361961e-01 -2.39992931e-01 4.84583288e-01 1.40030816e-01 4.60881591e-01 -3.39366496e-02 3.19605470e-01 -2.57416338e-01 -1.10943973e-01 -2.25765690e-01 -4.04634327e-01 1.48488551e-01 -1.34848297e-01 -2.48112738e-01 5.54041624e-01 4.60718274e-01 6.24800146e-01 -2.00984150e-01 3.41533780e-01 1.70497537e-01 7.88605884e-02 -6.22538686e-01 -3.48910898e-01 -2.04711139e-01 4.70246285e-01 -4.92610127e-01 -9.35221165e-02 2.16027498e-01 -5.44911027e-01 1.11279942e-01 2.33145058e-01 2.92422194e-02 7.28801265e-02 -2.89836731e-02 3.45409662e-02 -5.51851206e-02 8.44461992e-02 1.14739642e-01 2.80098915e-02 1.96161032e-01 -4.00048584e-01 -1.85628626e-02 4.85658914e-01 -3.68595213e-01 8.10945928e-01 -2.38628760e-01 3.49665992e-02 1.71355426e-01 2.33838260e-01 2.10744411e-01 6.19927704e-01 5.03931344e-01 -3.41309369e-01 -5.35479821e-02 4.99210089e-01 -1.34254042e-02 -1.94441900e-01 6.54412925e-01 -4.72943693e-01 -4.28872585e-01 7.71359622e-01 -5.07931574e-04 -7.84152076e-02 -4.54888493e-01 2.80522704e-01 -1.55871764e-01 -2.57151634e-01 -2.76567847e-01 -5.16359746e-01 -1.65771216e-01 8.95385966e-02 4.49817002e-01 -6.42293274e-01 -1.01187371e-01 -3.96868557e-01 1.38555869e-01 -5.15470326e-01 2.70436704e-01 1.23824812e-01 4.37831283e-01 5.55076562e-02 6.88846111e-01 -3.74445096e-02 2.22617015e-01 -5.49678802e-02 1.84128918e-02 -1.06002420e-01 4.87367243e-01 -1.22181349e-01 1.28003433e-01 -8.44522566e-02 1.53140798e-02 -2.48790994e-01 4.89025563e-01 3.36225897e-01 4.28185076e-01 2.68968523e-01 -4.03864026e-01 5.33003390e-01 -3.24288942e-02 -3.36116105e-02 5.33503331e-02 -4.10364330e-01 -4.53200974e-02 -1.71220731e-02 -6.40908629e-02 -5.97114563e-01 -5.55006385e-01 -1.87927112e-01 -5.18846095e-01 3.62131953e-01 -3.69627208e-01 2.10062131e-01 -2.76093185e-01 4.29292798e-01 -1.13652267e-01 5.89433648e-02 1.26306102e-01 -2.62811929e-01 1.74502254e-01 -8.70410979e-01 -5.41565288e-03 5.27546406e-02 -2.75881216e-02 -9.85012427e-02 8.13752785e-02 3.33176523e-01 -2.19196215e-01 2.04169452e-01 -1.19273260e-01 -5.15648961e-01 5.18876791e-01 7.72181079e-02 -3.69169563e-02 -3.73888046e-01 -1.15362436e-01 1.23195937e-02 4.31789845e-01 6.26467764e-02 2.17334032e-01 -1.25102311e-01 1.03933448e-02 3.00781131e-02 -1.50080398e-01 -2.22404495e-01 4.56653796e-02
লোহাগাড়া -3.83822829e-01 1.88063532e-01 2.54192561e-01 -4.10088092e-01 1.95615664e-01 -5.50673246e-01 1.07993014e-01 -7.90083170e-01 -4.96499706e-03 -3.78927588e-01 2.63859123e-01 9.26260948e-02 -1.10050954e-01 4.23960000e-01 3.46515864e-01 9.45708677e-02 1.22869380e-01 -1.38559490e-01 1.07850069e-02 4.89580482e-01 7.80235976e-02 -5.25312386e-02 -5.43572664e-01 -5.31571448e-01 -6.24329209e-01 -2.09260315e-01 1.40200973e-01 6.26745820e-01 -3.97078097e-02 9.28688198e-02 8.98325220e-02 1.15238512e-02 2.91218758e-01 8.11296776e-02 1.18465610e-01 3.52397300e-02 -6.40798211e-02 2.92380959e-01 3.75434905e-01 -5.50771177e-01 5.47479801e-02 -6.76249146e-01 2.62553066e-01 1.23682834e-01 -2.20639944e-01 1.11081228e-01 -3.69063914e-01 -3.90504837e-01 9.31421578e-01 1.22499190e-01 -1.75498817e-02 4.70845759e-01 -1.16729625e-01 9.81082842e-02 1.21628776e-01 -6.03976011e-01 5.59667945e-01 -3.11389953e-01 4.78730053e-01 -1.03071682e-01 -2.45597005e-01 -2.50436157e-01 1.78214848e-01 -2.62472481e-01 -2.24758133e-01 -1.85041383e-01 -3.58415216e-01 1.34481147e-01 7.20607936e-01 1.03896856e+00 2.04780370e-01 -3.85891080e-01 3.90295804e-01 6.90892935e-02 2.70028532e-01 -5.29989541e-01 -2.20767111e-01 4.68274027e-01 4.40621823e-01 -5.05294979e-01 1.82116538e-01 -3.02601665e-01 -4.41738129e-01 -5.83989471e-02 1.55113172e-02 1.36362016e-02 1.26013309e-01 1.79986493e-03 2.72150282e-02 -2.90265471e-01 4.07202579e-02 -4.50817458e-02 3.13228130e-01 -1.94722474e-01 -1.08312383e-01 3.69165652e-02 -1.10981360e-01 -5.78708053e-01 2.23577827e-01 -4.52692330e-01 -4.75659281e-01 -1.10877559e-01 3.15028965e-01 3.18989754e-01 4.19069350e-01 4.34473492e-02 4.87761609e-02 2.57380903e-01 2.28413939e-01 2.44292468e-01 -2.32807904e-01 3.91902179e-01 6.75084069e-02 -1.14614926e-01 6.11014426e-01 -3.23145628e-01 -2.19504952e-01 -4.85993177e-01 1.84372470e-01 4.69098147e-03 -5.12645900e-01 -6.36175573e-02 -2.08079800e-01 -2.63519748e-03 -4.44034100e-01 5.99332929e-01 -2.78495401e-01 -4.49953049e-01 1.02056690e-01 -1.27230927e-01 -4.82905924e-01 3.71219456e-01 -8.92125666e-02 4.70932350e-02 -1.09809250e-01 4.18129861e-01 3.62948775e-02 2.04235822e-01 7.79190287e-02 -2.20591694e-01 2.69883238e-02 2.42202565e-01 4.34447736e-01 -2.81872422e-01 1.94617346e-01 4.03677642e-01 -7.79616460e-02 6.14601970e-01 1.68478176e-01 -6.24762801e-03 7.94988126e-02 -3.90302896e-01 1.18637353e-01 -3.98328274e-01 -5.71221769e-01 -5.68186402e-01 -4.74826604e-01 3.66331220e-01 3.69915545e-01 3.11299026e-01 -2.01046512e-01 -6.67589962e-01 -5.20858020e-02 -4.60776716e-01 1.11318268e-01 -3.30849111e-01 -4.71653104e-01 -2.57842243e-01 1.14513898e+00 4.53089923e-02 -1.22592872e-04 -1.69385836e-01 -4.05238926e-01 -2.43512034e-01 -1.05080202e-01 5.85619569e-01 -1.12792738e-01 3.74904908e-02 -1.94032237e-01 -2.32540756e-01 2.19591841e-01 1.59815371e-01 3.11577648e-01 -2.70308107e-01 -2.10836858e-01 4.08866823e-01 1.09202847e-01 1.26048744e-01 -8.69493902e-01 1.27603590e-01 3.95493060e-02 7.25653052e-01 2.16914564e-01 -1.76764295e-01 -6.15354896e-01 4.36401665e-01 -1.79003939e-01 -4.76998985e-01 -6.24170229e-02 -3.08759138e-02
নবাবগঞ্জ -2.65194893e-01 1.44470498e-01 7.42490888e-02 -5.27068257e-01 2.01824501e-01 -7.49854028e-01 1.75456554e-01 -2.73774713e-01 1.79298311e-01 1.39919594e-01 -2.02596664e-01 -1.67705685e-01 9.59187374e-02 5.28439356e-04 2.83808768e-01 -1.11431092e-01 4.82727796e-01 -2.00306028e-01 9.54536796e-02 1.72359720e-01 5.59803508e-02 6.03407443e-01 7.66976736e-03 -1.88620061e-01 -6.77668452e-01 -1.87941268e-01 4.61426340e-02 6.96795106e-01 5.96089028e-02 1.02234595e-02 -2.15774387e-01 1.75531015e-01 -1.76288709e-01 4.91026461e-01 -7.85751566e-02 1.28428653e-01 3.15750390e-01 6.63803518e-02 -1.17591210e-01 -7.48984635e-01 1.54959798e-01 -1.81022853e-01 3.88832301e-01 1.85173795e-01 4.36171964e-02 -2.23956153e-01 1.00364842e-01 -1.17045410e-01 6.84506297e-01 -1.53891489e-01 4.16944206e-01 -3.32708418e-01 5.09436429e-01 -1.90315917e-01 -2.16968551e-01 -9.76247117e-02 4.50115025e-01 -1.90282226e-01 3.18470269e-01 -2.32346073e-01 1.18773200e-01 -1.85750678e-01 -1.04825333e-01 -3.87384951e-01 -2.24684641e-01 7.91100115e-02 -7.03073144e-02 -2.22435802e-01 1.70412779e-01 3.95318836e-01 2.02788875e-01 -5.60436487e-01 1.86085507e-01 -1.94885090e-01 2.23892361e-01 -3.85638028e-01 -4.71253574e-01 1.80255026e-01 2.04170883e-01 -5.69198012e-01 3.08112204e-01 4.51733693e-02 -3.53013903e-01 -1.17801495e-01 -1.51939588e-02 1.42235935e-01 -6.87884837e-02 2.19499692e-01 -9.54081640e-02 5.40844910e-02 -7.38503486e-02 3.23126346e-01 -1.11142732e-01 1.55095570e-02 -2.18332782e-01 1.07355163e-01 5.28848395e-02 -6.07984424e-01 1.32586867e-01 -2.13977993e-01 2.67274380e-01 5.74724257e-01 1.01182498e-01 -2.43868470e-01 4.46258664e-01 3.69373053e-01 -1.48156136e-02 3.05014551e-01 4.10596400e-01 4.55974728e-01 -5.41627824e-01 1.62826791e-01 8.53742436e-02 3.08027476e-01 4.65495080e-01 -3.32875758e-01 2.20770746e-01 -3.86548221e-01 -4.33269948e-01 -3.98380458e-02 1.66130736e-01 -2.00138539e-01 -4.10385132e-01 -1.37255877e-01 1.11922003e-01 4.58292454e-01 -5.84637046e-01 2.03616712e-02 -1.78186689e-02 -1.42484292e-01 -3.12725097e-01 4.94993716e-01 4.59115207e-01 -4.19306271e-02 1.70990855e-01 3.39314789e-01 4.35468256e-01 3.28211896e-02 1.38080046e-01 -3.10211003e-01 4.08737697e-02 2.15112846e-02 5.43308020e-01 -2.00668462e-02 1.59572065e-01 2.85172403e-01 -4.12062079e-01 4.99009192e-01 3.19770277e-01 2.42076829e-01 1.10332869e-01 -7.00788081e-01 1.74636424e-01 -4.88119125e-01 -1.59402043e-01 -3.79636079e-01 -1.99006721e-01 -8.18032399e-02 -2.50138283e-01 2.14073390e-01 -1.84789240e-01 7.04364106e-02 -4.83375520e-01 -2.83840686e-01 2.72477955e-01 -1.58095106e-01 2.67044932e-01 3.06215547e-02 4.38312411e-01 -5.84183000e-02 -5.54375291e-01 -1.27772793e-01 1.17980391e-01 4.68596101e-01 -2.81764627e-01 8.68395865e-02 -1.22836411e-01 2.89137214e-01 -8.99256989e-02 -1.61946043e-01 1.67885616e-01 -6.98634684e-02 -3.22445214e-01 2.56026238e-01 -7.23199069e-01 9.57098529e-02 3.13039362e-01 3.11846048e-01 -8.19172442e-01 9.63283777e-02 2.67308146e-01 2.52719790e-01 -5.58501244e-01 -2.10331813e-01 -1.33755147e-01 8.78170133e-02 1.51555255e-01 6.46976903e-02 -3.28779072e-02 -6.59005716e-02
হাটহাজারী -4.58954990e-01 -1.17070660e-01 9.49972123e-02 -4.85386699e-01 1.49048358e-01 -1.29290760e-01 -2.60540038e-01 -4.64692265e-01 -3.48884538e-02 -3.64365935e-01 -1.52821124e-01 8.80503058e-02 -2.36175179e-01 5.66870794e-02 -5.10891862e-02 1.32958740e-01 -1.01748414e-01 1.77328810e-01 -8.49189833e-02 3.20369869e-01 3.73592675e-01 1.90289151e-02 -2.67921180e-01 -1.42406181e-01 -4.35784072e-01 8.39529335e-02 3.35206658e-01 1.81173041e-01 -2.86019295e-01 3.18279624e-01 -1.00903295e-01 4.77713067e-03 6.75632432e-02 2.60686308e-01 3.77007544e-01 3.08235198e-01 -2.48233333e-01 7.80007616e-02 3.42421383e-01 -6.30885482e-01 -1.58757921e-02 -2.47052044e-01 2.58919895e-01 -3.21290009e-02 -4.89295870e-01 8.23341981e-02 -5.43372393e-01 1.84585124e-01 4.21499312e-01 3.85717213e-01 9.65035185e-02 -1.38897598e-01 3.78979445e-01 1.20222636e-01 7.23774638e-03 -3.64070982e-01 -1.39805704e-01 3.66168730e-02 4.63979840e-01 -4.93694097e-01 -3.72272432e-01 -9.26858336e-02 -1.81210525e-02 -5.21337748e-01 1.20125309e-01 -1.48740739e-01 1.02116324e-01 -4.09137160e-01 1.59984410e-01 6.80205703e-01 -4.69411649e-02 -3.68916959e-01 3.33748937e-01 1.84152275e-01 2.85704195e-01 -4.20907408e-01 -3.88688982e-01 6.66698098e-01 1.56800658e-01 -6.70776606e-01 2.18470186e-01 -1.66784614e-01 -3.57677102e-01 1.79692358e-01 2.12344825e-02 2.07811788e-01 3.13401580e-01 -1.06766157e-01 1.38319567e-01 -1.68544427e-01 -2.49706909e-01 5.50013959e-01 3.45160156e-01 -4.82572734e-01 -1.85312733e-01 2.20896844e-02 -3.92272681e-01 -9.33967829e-01 6.99997723e-01 -1.18757963e-01 2.21595857e-02 1.18365109e-01 2.13019356e-01 -1.07803538e-01 4.48843017e-02 2.46599719e-01 1.63484618e-01 2.80734122e-01 1.37187749e-01 3.75656128e-01 -6.62631840e-02 6.03132835e-03 8.76138359e-02 -1.59381241e-01 -2.93693572e-01 -6.65691674e-01 1.32707357e-01 5.53863309e-02 2.88512528e-01 -5.11392765e-03 -6.04092658e-01 2.43112762e-02 -2.25283369e-01 8.06871727e-02 -2.41427451e-01 5.51092565e-01 -4.04201448e-01 -4.46173310e-01 7.17984280e-03 -4.84725833e-02 -4.61505741e-01 2.45955259e-01 -2.41488703e-02 -1.33018076e-01 8.78639817e-02 5.73319435e-01 8.38714465e-02 3.30582261e-01 3.20145786e-01 -3.58456261e-02 -1.25547677e-01 1.71455060e-04 2.96519041e-01 6.78225607e-02 -2.76075542e-01 1.89652964e-01 -5.43581732e-02 4.92190748e-01 2.18680382e-01 -3.45945172e-02 3.57797265e-01 -5.56902945e-01 4.09283116e-02 1.17055532e-02 9.28666070e-02 -8.27833652e-01 -5.58239520e-01 -5.59717156e-02 2.43213505e-01 1.31363273e-01 -1.60172116e-02 -6.08607121e-02 -1.40651479e-01 -5.28055906e-01 2.40270123e-01 -7.20966831e-02 -2.58600742e-01 -1.99123234e-01 6.77090347e-01 1.65661946e-01 1.52581945e-01 -2.11878031e-01 -3.17940027e-01 -8.48549046e-03 2.16030981e-02 1.90818265e-01 3.09159309e-01 2.97448635e-01 -1.31935969e-01 1.66840285e-01 -1.11814439e-02 3.52078974e-01 1.21831037e-02 2.91967124e-01 -1.31254159e-02 2.04782337e-01 1.35257199e-01 -2.36304402e-01 -7.12870061e-01 -1.29748762e-01 5.46486557e-01 3.64383250e-01 -8.04908127e-02 -8.42620432e-02 -3.90498340e-01 1.55716628e-01 -2.77374387e-01 -5.81493497e-01 4.97217178e-01 -4.44360077e-01
জুড়ী -0.00973021 -0.2298814 0.37307495 -0.3292382 0.51475555 -0.8837989 -0.23871242 -0.66361904 -0.15352581 -0.33208838 -0.04500146 0.3380659 -0.2361498 -0.13525686 0.3330284 0.23336138 0.00666531 -0.13624412 -0.00388904 -0.32489604 0.01556905 -0.19823948 0.38151965 -0.23413417 -0.5376363 -0.05291276 0.2398931 0.46794325 0.40634993 -0.01038788 0.4999468 -0.4296062 -0.41011685 0.3868637 0.22630154 0.34395087 0.3025452 -0.02204642 0.3955009 -1.0219609 -0.09127012 0.07478077 0.53504294 -0.0881156 0.02292331 -0.30564326 0.5680836 0.0143534 0.70618486 0.3536641 0.18135712 0.15664724 0.08490863 0.54631317 -0.34992382 0.38070032 -0.2562303 0.21421427 0.32093155 0.14939201 -0.07068725 0.06770898 -0.07209434 -0.46696794 -0.58164066 -0.34020156 0.08733238 -0.22378705 0.66874933 0.61771107 0.06163418 -0.67015135 0.6473169 0.21351989 -0.38284567 -0.79426503 -0.11445503 0.27549663 0.06306754 -0.2722431 -0.16391423 0.19779202 -0.43402216 0.05696951 0.10074216 0.34334293 0.23473202 -0.03200015 -0.3461762 -0.16745614 0.03345797 -0.18663819 -0.14841841 -0.20078889 0.02820257 -0.5979978 0.67072463 -0.72871035 0.3813985 -0.26318157 0.38903445 0.36404464 0.4085768 0.13721234 0.11738131 0.32844165 -0.01054398 0.03403326 0.15546377 0.60675013 0.1294242 0.2735384 0.1459161 -0.07426316 0.37620315 -0.45901716 -0.0459659 -0.6621966 -0.3409373 0.11018734 0.11312211 -0.05586249 -0.15032755 -0.6490558 -0.06069134 -0.15584883 -0.35433963 -0.67860645 -0.3816985 0.04866879 -0.13569845 0.12409931 -0.01808128 0.07771833 -0.1368053 0.42061114 -0.19108248 0.43802163 0.00864272 -0.0198894 0.07774111 0.12340764 0.408189 -0.62395114 -0.07362156 0.09431382 0.09942295 0.6303853 0.1598684 -0.26847187 0.29466134 -0.46984446 0.26265532 -0.5374805 -0.0179771 -0.36831206 -0.3211439 -0.10776731 -0.10296164 0.34449288 -0.07788737 -0.4505377 -0.24709922 -0.5637761 0.6799732 -0.02851918 0.19756232 -0.58518827 0.27099037 0.15469524 -0.26549283 -0.4259583 0.07352718 0.20870116 -0.54763323 0.18530823 -0.09553405 -0.06148285 0.3076932 0.01421722 0.4665701 -0.18580563 -0.34132975 0.59603834 -0.6201988 -0.06079802 0.2703221 -0.36988264 -0.524862 0.43260852 0.02434414 0.51968116 -0.11302368 -0.04669861 -0.5161486 0.13151231 -0.29186985 -0.27673304 0.16704284 -0.65265244
তারাগঞ্জ -0.1089385 0.15143673 0.21977971 -0.5123888 0.03826151 -0.84261745 0.32294837 -0.3234527 0.16182423 0.24001838 0.26444632 0.17963146 0.06763852 0.09407829 0.06054776 -0.02414659 0.07501932 0.02847559 0.03782535 0.02097261 0.43320486 0.44120577 0.35892153 0.03539318 -0.6354106 -0.34620228 -0.01006823 0.28748664 0.4563523 0.5364976 0.00746838 -0.05010427 -0.09635834 0.6785598 0.24420694 0.10041665 0.18607919 0.4656764 0.09837849 -0.6714155 0.10107098 0.03662447 0.999275 0.10108323 0.29117635 -0.15213618 -0.02160736 -0.13019426 0.6575951 0.42207918 0.37147072 -0.22779544 0.46753788 0.19422169 -0.3833972 -0.2675662 0.48932073 -0.31760108 0.6695016 0.25743172 -0.1863566 0.01130156 -0.23373133 -0.4932099 -0.13756801 0.12074526 -0.24960923 -0.29156452 0.09326084 0.45090985 0.03760248 -0.36133158 0.36191925 0.10601248 -0.13277623 -0.6813655 -0.44898653 -0.05585152 0.28200114 -0.590058 0.3576523 -0.13923235 -0.4478972 -0.2828374 0.04552574 0.32867816 0.00242565 0.06240645 0.73183864 -0.08744372 -0.38980344 0.02432756 0.20684734 0.1301117 0.06615761 -0.19260466 0.27630678 -0.39570856 -0.02232244 -0.26136628 -0.15741652 0.6382524 0.071545 0.36118153 0.04758807 0.64212155 0.3363313 0.19332871 0.7098755 0.51285416 -0.40234345 0.46033323 -0.02739246 -0.14475705 0.07477559 -0.8323642 -0.1686015 -0.5236897 -0.21236974 0.34078628 0.18116792 -0.26707646 -0.05553628 0.02559263 0.36876893 0.8600327 -0.06119952 -0.396651 -0.31222627 0.32601276 -0.28879938 0.24384773 -0.04449138 0.30038106 -0.38691947 -0.06962369 0.10964759 -0.27869096 0.26625502 -0.54396015 -0.05483449 0.02497866 0.4107652 -0.22949551 -0.05457358 0.21684514 -0.06516249 0.49289083 0.4263552 0.2470042 -0.12803578 -0.42680976 0.40897834 -0.4007387 -0.12740438 -0.17279038 -0.2307248 0.01967225 -0.33614808 0.2617923 -0.02152615 -0.03220038 0.0096862 -0.2118326 0.59203523 -0.37259328 0.33130336 -0.4012226 0.5891384 0.14278385 -0.59731406 -0.2132252 0.13451177 0.07436927 -0.4483199 0.26019654 -0.07605007 0.6111911 -0.08735806 -0.18316464 0.31680316 -0.07585778 -0.2781247 0.25200927 -0.95038736 0.7799177 0.37594417 0.516207 -0.7160964 0.2867322 0.01039395 0.11245219 -0.06432965 0.27710375 -0.7248094 0.07762002 0.04162106 -0.43670797 0.21732606 0.10500371
ধামরাই 2.81126850e-04 1.88347548e-02 -4.63958643e-02 -2.55742729e-01 -2.26946115e-01 -6.45204902e-01 3.69864017e-01 -3.97180229e-01 4.76609379e-01 -2.11875409e-01 -2.29601026e-01 2.91688088e-02 3.31154346e-01 2.06962153e-01 1.23738512e-01 -1.04287528e-01 3.47712517e-01 1.61545828e-01 1.49026975e-01 -2.22873613e-01 6.55086637e-02 5.67382812e-01 -1.27032071e-01 -1.36408120e-01 -7.46577904e-02 7.03018308e-02 -2.58540828e-02 3.63674939e-01 -3.51271152e-01 2.05849595e-02 -6.46815225e-02 -1.08155841e-02 -2.06547663e-01 4.34614360e-01 -2.68484443e-01 4.20306563e-01 6.25124723e-02 1.21644266e-01 9.56635773e-02 -5.93086958e-01 1.17806844e-01 1.92498982e-01 3.51116508e-01 -2.57276833e-01 -4.16800410e-01 -1.45405382e-01 3.39737609e-02 -3.19341481e-01 6.80071831e-01 -4.84299399e-02 4.75346714e-01 -1.64064378e-01 1.98740944e-01 2.82607347e-01 -6.58819139e-01 -1.27360821e-01 3.52859825e-01 5.67586801e-04 2.59144455e-02 -2.36189172e-01 1.18315615e-01 -3.27776074e-01 -1.38973286e-02 -1.67551972e-02 -3.07745904e-01 -6.79056346e-02 1.53883636e-01 -3.97783548e-01 2.41768360e-02 4.97741938e-01 2.40363941e-01 -6.73164666e-01 2.21125841e-01 -3.91989976e-01 1.66710526e-01 -1.98100671e-01 -3.17909390e-01 2.14985758e-01 -3.31562571e-02 -6.61077380e-01 -1.34421393e-01 -7.56971166e-02 -3.01973611e-01 -2.68507600e-01 1.23962887e-01 1.49197385e-01 1.88550293e-01 -5.96346781e-02 -1.31090641e-01 -5.11366315e-02 -8.44897702e-02 2.28877693e-01 -8.97710398e-02 -8.30368698e-02 -1.89274758e-01 1.75140113e-01 -1.26620963e-01 -5.29563785e-01 1.84584975e-01 -6.33386850e-01 4.13960189e-01 6.26883686e-01 2.37841457e-01 1.66953668e-01 4.23860133e-01 4.30458695e-01 2.24607736e-02 5.25802314e-01 5.50009012e-01 4.87070084e-01 -3.73896658e-01 1.21651456e-01 -1.61571279e-02 4.47367847e-01 -3.49322446e-02 -6.92475438e-02 2.20079958e-01 -2.69613415e-01 -5.67955017e-01 9.99388546e-02 8.69860575e-02 -4.73837465e-01 -4.12913054e-01 3.95214289e-01 1.95396170e-01 4.77588266e-01 -4.25769150e-01 -9.52348928e-04 -9.27226692e-02 -1.16802447e-01 -3.85167241e-01 3.59656096e-01 9.97007266e-02 -1.96598753e-01 -3.21226530e-02 2.14980021e-01 5.44338703e-01 2.45057806e-01 -7.70294368e-02 -7.45809004e-02 9.81328562e-02 2.69815445e-01 1.04248978e-01 -3.36927265e-01 1.76434010e-01 1.92156583e-01 -2.68278241e-01 4.63908732e-01 2.15978608e-01 2.75818169e-01 4.25333649e-01 -6.22387826e-01 -1.72018111e-01 -3.55670750e-01 8.45988840e-02 -4.08801049e-01 -2.72507012e-01 -4.92543399e-01 -5.73675521e-02 8.87473673e-02 -4.32560831e-01 -1.92089286e-02 -8.26325342e-02 -1.94798574e-01 2.14486688e-01 -4.33287919e-01 -4.58299145e-02 -2.18868673e-01 7.00553417e-01 1.76296130e-01 -5.02277911e-01 -6.68625087e-02 -3.88015926e-01 3.27876329e-01 -5.95980525e-01 -1.16052225e-01 3.92639458e-01 2.51136661e-01 1.55396685e-01 1.97012350e-01 2.52139658e-01 3.93999740e-02 -3.40588748e-01 -8.04927275e-02 -6.65093005e-01 6.31498754e-01 2.20976174e-01 2.44854495e-01 -9.54058230e-01 -1.01706393e-01 3.61959368e-01 1.26119316e-01 -6.29940927e-01 -2.12503359e-01 -6.20346479e-02 7.98929185e-02 -1.29563376e-01 -1.67262424e-02 -1.75922364e-01 1.36693120e-01
বাকেরগঞ্জ -6.23623133e-02 -2.25225657e-01 2.26193041e-01 -3.00801426e-01 2.63789952e-01 -3.80907148e-01 1.25414152e-02 -2.63953656e-01 3.15074041e-03 -6.51448905e-01 -3.69006209e-02 3.89649779e-01 -3.20954680e-01 -2.84718513e-01 9.48008299e-02 6.93699792e-02 3.55586767e-01 -4.18687850e-01 2.62219816e-01 9.93166119e-03 6.36894882e-01 -1.67143103e-02 -4.42558043e-02 2.33294427e-01 -4.15019333e-01 4.46443148e-02 7.28031620e-02 6.86342716e-01 2.05603734e-01 1.10452935e-01 4.64971550e-02 -5.08869290e-01 -2.55274743e-01 4.35288101e-01 -1.14955403e-01 4.56052780e-01 4.69095290e-01 1.93057239e-01 2.84775402e-02 -3.96174937e-01 -1.63302734e-01 -2.30538473e-01 2.37824708e-01 -1.29291564e-01 -2.90133804e-01 -1.59276739e-01 -2.12530226e-01 1.61654264e-01 7.58481085e-01 -2.07058713e-02 2.56866932e-01 -3.72522563e-01 3.43855768e-01 -1.75220937e-01 -4.31137651e-01 -8.62186790e-01 5.95659092e-02 1.08772784e-01 4.93300483e-02 -2.85216242e-01 2.02819794e-01 2.22386848e-02 -4.53697622e-01 -5.59391737e-01 -2.34611869e-01 -5.32709658e-02 1.09512806e-01 -3.23457479e-01 4.10208963e-02 3.93126816e-01 -1.30420625e-02 -1.18183382e-01 1.64343059e-01 -3.80165517e-01 1.36599049e-01 -7.88658500e-01 -5.84587336e-01 6.12843893e-02 4.00390208e-01 -8.06853235e-01 -6.52878406e-03 1.17346965e-01 -2.52620399e-01 -1.76316828e-01 4.06968832e-01 -1.64234117e-02 -1.36763752e-01 8.41393694e-02 -4.31415699e-02 -1.45074159e-01 -3.72829363e-02 1.55321792e-01 3.89843643e-01 -3.60443406e-02 -3.71718705e-01 7.85098225e-02 2.38166213e-01 -3.55050921e-01 3.20940673e-01 -2.55118430e-01 1.70380622e-01 3.43741804e-01 5.20599425e-01 2.42745858e-02 1.37251690e-01 3.99701595e-01 3.08164358e-01 -2.31823593e-01 2.54596710e-01 -3.25940922e-03 -9.18045565e-02 2.16934115e-01 2.60156244e-01 2.28082120e-01 2.01392714e-02 -3.84017192e-02 -4.92688455e-02 -2.27420792e-01 -1.86928526e-01 3.34313720e-01 1.18702330e-01 1.03390235e-02 -2.00965658e-01 -5.40137172e-01 6.02612495e-02 3.61240208e-01 -4.29552943e-01 -1.06018774e-01 -2.63649523e-01 -1.34036422e-01 -4.70640212e-01 3.47795397e-01 -6.88582659e-02 2.84075141e-01 -1.05686978e-01 2.61293322e-01 1.39557585e-01 1.57387573e-02 -1.51393995e-01 -4.93769720e-02 -2.61293333e-02 -1.29172444e-01 1.65990978e-01 -2.44359478e-01 -2.39286542e-01 1.43424541e-01 -6.16517514e-02 1.31566405e-01 4.23901290e-01 7.92723298e-02 1.91833116e-02 -3.90368283e-01 7.14751124e-01 -4.51654851e-01 -3.60332467e-02 -4.36259627e-01 -3.79578233e-01 -5.56606352e-01 -1.90215215e-01 6.34927452e-02 -2.98256278e-01 -2.45451346e-01 1.14649355e-01 -3.45839351e-01 5.85194111e-01 -4.38351519e-02 -5.51075824e-02 -1.95241839e-01 5.39214313e-01 2.07686722e-01 -4.36595172e-01 3.28040421e-01 -4.00423378e-01 3.13654900e-01 -6.21203184e-01 -1.40835699e-02 2.68793911e-01 -5.71459904e-02 -1.57885611e-01 -5.19305579e-02 2.51060724e-01 -1.16951168e-01 -1.37736425e-01 -1.26865432e-01 -7.15223372e-01 5.26072979e-01 1.08080052e-01 3.09970081e-01 -2.80513912e-01 -2.73734719e-01 -2.02694997e-01 4.00803285e-04 -1.59503281e-01 1.62185505e-02 -1.12147257e-01 1.19609267e-01 7.56146833e-02 -2.23875120e-01 -1.16992965e-02 -5.12272790e-02
রূপসা 0.0829257 0.20716774 0.0269643 -0.09877671 0.22448123 -0.19066459 -0.0190945 0.10690089 0.12964416 -0.84380555 -0.01057506 0.10708626 -0.3237006 -0.46702227 -0.16195822 0.06044627 0.18088453 -0.39545307 0.4086949 -0.10859592 0.06475793 0.17586106 -0.05709497 -0.10517721 -0.5895652 0.10775632 0.25248516 0.3568429 -0.08003435 -0.01962877 -0.05904514 -0.23477049 0.19180088 0.30594778 0.11827849 0.8263538 0.35100007 -0.05800711 0.0989994 0.02169034 0.10662632 -0.28933296 0.29714707 -0.00613347 -0.6723163 -0.3225248 -0.2812797 -0.40022638 0.17537355 -0.10522631 0.3373278 -0.03828867 0.14901124 0.12267511 0.18004863 -0.21672553 0.4227779 0.44206145 0.22701174 -0.10425784 0.20808081 -0.14861868 -0.42188135 -0.47035965 -0.22288677 -0.07500228 0.06547645 -0.55455863 0.31848702 0.59544724 0.1265167 -0.19087422 0.01401287 0.03067218 0.24950534 -0.59154046 -0.18644701 0.01354622 0.16165075 -0.5915098 -0.08805949 -0.00659481 -0.43895188 -0.16863167 0.23179646 -0.17425658 -0.14391199 -0.13116366 0.16000655 0.14622769 -0.20802665 0.09552181 0.14183757 -0.05733868 -0.4748553 -0.16387697 0.10903225 -0.09285644 0.22775944 -0.27362928 0.11106421 0.30791822 0.36557874 0.11445937 0.28396618 0.2764888 0.41951796 0.07950231 0.4310968 -0.05217951 0.24670148 0.29900864 -0.15111351 0.2930289 0.35224956 -0.2880595 -0.26308206 0.21892756 -0.20569046 -0.04182998 -0.05922581 0.19776815 -0.49000207 -0.29192263 0.13242242 0.3671633 -0.6359979 -0.24266104 -0.37931922 -0.08546347 -0.37188137 0.55514103 -0.23135218 0.2783234 0.00840247 0.51537144 0.17412142 0.25197178 0.08719931 0.03595409 -0.26238158 0.2451436 0.25111687 -0.29017186 -0.08967794 -0.30703953 0.02522555 0.10013361 0.43492424 0.12071177 0.34006724 -0.49243018 0.5104484 -0.3408777 0.05954036 0.02743814 -0.1965584 -0.36210108 0.21266738 -0.00180228 0.14118409 -0.49454364 0.14384139 -0.57189304 0.24018554 0.01403058 0.47558117 -0.00511952 0.52937293 -0.24294394 -0.34365177 0.32969838 -0.09144368 0.35292038 -0.5616356 0.15980919 -0.05702415 0.24274677 0.13707422 -0.06186026 0.00274012 -0.12650663 -0.10270908 -0.21866967 -0.35477895 0.76297 0.2678553 0.05091079 -0.42465675 -0.32608193 -0.11133256 0.18496723 -0.5138697 -0.16218796 0.17103325 0.1488214 -0.24333787 -0.3778525 -0.11201914 -0.09905472
কয়রা 0.09673725 -0.35118902 -0.04274541 0.0140945 0.5443965 0.13184367 0.3115263 0.03907634 0.00586286 -0.5013088 -0.15256664 0.13302927 -0.00121358 -0.22150376 0.1317918 0.15529647 0.15357871 -0.48692825 0.04620089 -0.06331486 0.07145891 0.1637606 -0.30616257 -0.12849526 -0.37884963 0.27579308 0.05871688 0.54490644 -0.04234252 -0.34703594 -0.43286133 -0.12992537 -0.09412841 0.1532229 -0.10267109 1.1060772 0.61823136 0.28008604 0.04169274 0.04235251 -0.04937781 -0.08201021 0.37935013 0.37307635 -0.18190822 -0.16808535 -0.4157228 -0.2348222 0.45697364 0.01606619 0.24190457 -0.16863865 -0.1300151 -0.2948842 -0.17920189 -0.01278661 0.3818858 0.5478581 0.26170215 -0.04045603 -0.03368878 -0.27115276 -0.22410211 -0.5941424 0.18741056 -0.08500212 0.3550501 -0.21807584 0.6147242 0.2984769 0.35355255 -0.10301769 0.33064795 0.17675059 0.19602256 -0.5020469 -0.31678993 -0.08086783 0.47557437 -0.6107479 0.04996682 0.02267925 -0.57783514 -0.07099439 0.31557277 0.06681384 0.17280576 -0.3334694 -0.14373319 -0.03678242 0.09696065 -0.30329567 -0.1858426 -0.14650397 -0.7554895 -0.12942697 0.13296872 -0.5115084 0.44709504 -0.65125644 0.10191145 0.08271904 0.6706742 0.22380601 0.3590601 0.5741879 -0.6993897 -0.35306627 0.22710067 -0.38365516 -0.03966209 0.2356677 -0.11519644 -0.47801608 0.5756898 -0.33664218 -0.36088443 -0.06369983 0.21881694 0.11446256 -0.3204709 -0.23536752 -0.3816775 -0.42453578 0.11822851 0.18184717 -0.37738174 -0.5141678 -0.140536 0.01102874 -0.34127083 0.32888576 -0.03359652 -0.03633799 0.45095795 0.36911318 -0.00134342 0.5894251 -0.10188477 0.339607 0.01385757 0.45668644 0.03862651 0.13207653 -0.30479324 0.2996897 -0.41621342 0.14573221 0.22365677 0.0037413 0.11716171 -0.5933026 0.28238663 -0.04206159 -0.23895805 -0.02964601 -0.47132057 -0.290992 0.16242422 0.06487536 -0.21001336 -0.39281124 -0.2481999 -0.6581022 0.17586473 -0.01058429 0.259456 -0.49696055 0.3807083 0.11335514 -0.13676755 -0.06113431 -0.05255375 0.34121746 -0.52247983 -0.18427654 0.04026631 -0.12581417 -0.00893703 -0.10865434 -0.01952524 -0.18751912 0.16640556 0.10654327 -0.3211228 0.25977376 0.33472592 0.28647614 -0.25051636 -0.36540055 -0.17757718 0.07625977 -0.05513312 0.15611327 0.10306936 -0.03361128 -0.23958766 -0.17484379 -0.16752735 -0.42724982
বটিয়াঘাটা 0.05105269 -0.04753675 0.00587824 -0.10030217 0.27029917 0.11321187 0.10168876 -0.09823773 -0.08481939 -0.56646264 -0.09391596 0.2979512 0.01060579 -0.0771093 0.08222251 0.00746294 0.01684395 -0.57906055 0.28892496 0.23869607 0.37198168 0.32051265 -0.2570091 -0.06411352 -0.5679509 0.1399321 0.04979716 0.43908677 -0.15546036 -0.14375553 -0.00256969 -0.18395616 -0.02924956 0.19257277 -0.09883945 0.9423317 0.3820861 0.05640381 0.4301554 -0.04754572 0.13351342 -0.13647142 0.194818 0.19395377 -0.14747037 -0.27547404 -0.3749972 -0.15890604 0.33747962 0.13319579 0.00947484 -0.18718134 0.18046774 -0.37953538 -0.10038953 -0.12249106 0.30312553 0.5242084 0.3275888 0.03931201 0.136171 -0.20876274 -0.15796867 -0.4748041 -0.20505151 -0.13019705 0.06237333 -0.47269425 0.35116583 0.13008313 0.39472172 -0.02609256 0.16916038 -0.08867224 0.21025093 -0.5521362 -0.05009086 -0.24541438 0.45804498 -0.41947517 -0.1834865 -0.15840425 -0.35735747 0.11559857 0.13319351 0.01449261 0.04031564 -0.10834917 0.06241247 0.06714359 0.06881464 -0.23685503 0.08646756 -0.06300837 -0.50449526 -0.14702119 0.16904227 -0.30886677 0.11330836 -0.11640267 0.1120635 0.26956868 0.25188318 0.37585378 0.50964785 0.4091588 -0.21000957 -0.1328755 0.34527084 -0.18684691 -0.09502507 0.3764632 -0.17465815 -0.10563103 0.43246013 -0.3027249 -0.3349205 -0.15837155 0.1328334 -0.02860205 0.04115184 -0.0859391 -0.46120736 -0.16634628 -0.28452983 0.37127912 -0.5305748 -0.36957103 -0.1867641 0.01410344 -0.21620686 0.07950889 -0.07211673 0.5509106 0.33414933 0.33761197 0.1842274 0.32173723 -0.03664266 -0.08547992 -0.32400274 0.31004122 -0.09223534 -0.19370066 -0.03589159 -0.02086288 -0.31391045 0.15357022 0.2081689 0.2794144 0.26649988 -0.23648505 0.7647124 -0.12074871 -0.42073295 -0.11004295 -0.5035159 -0.10577105 0.03381816 0.16021998 -0.29867822 -0.35076538 -0.15784065 -0.69835913 0.3317468 -0.14691922 0.250266 -0.55583894 0.5046119 0.01889406 -0.15285939 0.10083301 -0.0750288 0.22182362 -0.6946435 0.03726116 -0.04114079 0.4698381 0.02811078 -0.20155565 0.03225635 -0.18097503 0.28744736 -0.34345126 -0.44310942 0.44344324 -0.06339559 0.44979125 -0.5928645 -0.2342944 -0.10344719 0.35378584 -0.13646598 0.00317701 0.3036501 0.00295324 0.06647518 -0.26066497 -0.00243284 -0.36249557
